\data\
ngram 1=31
ngram 2=835

\1-grams:
-2.7603185	<unk>	0
0	<s>	-5.7341113
-1.4911277	</s>	0
-1.460038	T	-6.5839562
-1.460038	H	-6.429047
-1.460038	A	-6.5230284
-1.460038	N	-6.45912
-1.460038	K	-5.509932
-1.4911277	|	-7.009944
-1.460038	Y	-5.915058
-1.460038	O	-6.5013194
-1.460038	U	-6.0753293
-1.460038	G	-5.929136
-1.460038	I	-6.455465
-1.460038	M	-6.020281
-1.460038	S	-6.4228373
-1.460038	E	-6.722824
-1.460038	R	-6.3883185
-1.460038	D	-6.2624784
-1.460038	V	-5.601866
-1.460038	L	-6.2311273
-1.460038	P	-5.846753
-1.460038	C	-6.0078483
-1.460038	W	-5.9905615
-1.460038	B	-5.800545
-1.460038	F	-5.984461
-1.460038	X	-4.799718
-1.460038	Q	-4.6405735
-1.460038	J	-4.756486
-1.460038	Z	-4.4199224
-1.4911277	'	-5.0421505

\2-grams:
-1.878804	T </s>
-2.3507142	H </s>
-2.7857444	A </s>
-1.837792	N </s>
-1.5629812	K </s>
-1.3061051	Y </s>
-2.601527	O </s>
-2.3476424	U </s>
-1.7387819	G </s>
-3.361902	I </s>
-1.7277002	M </s>
-1.5948619	S </s>
-1.7849182	E </s>
-1.8131552	R </s>
-1.5723233	D </s>
-3.1957598	V </s>
-2.059656	L </s>
-2.130194	P </s>
-2.925471	C </s>
-2.1389601	W </s>
-2.8360417	B </s>
-2.227155	F </s>
-1.8767531	X </s>
-3.0374477	Q </s>
-3.0407958	J </s>
-2.0466263	Z </s>
-4.8132725	' </s>
-0.7214182	<s> T
-1.6934354	T T
-1.5227407	H T
-0.89701235	A T
-1.0559505	N T
-3.277296	K T
-0.80756164	| T
-2.061827	Y T
-1.3068689	O T
-0.8528953	U T
-2.2886765	G T
-0.89184785	I T
-3.318994	M T
-0.90443194	S T
-1.5756807	E T
-1.371972	R T
-3.4980993	D T
-4.9838023	V T
-1.7866966	L T
-1.4435322	P T
-1.1427987	C T
-3.1811635	W T
-2.060218	B T
-1.422905	F T
-0.74294007	X T
-5.585557	Q T
-4.3773737	J T
-2.6804454	Z T
-0.6411854	' T
-1.035166	<s> H
-0.4771831	T H
-4.310122	H H
-2.763503	A H
-2.975802	N H
-2.6639118	K H
-1.1399565	| H
-3.1395879	Y H
-2.602081	O H
-3.6203008	U H
-0.8459504	G H
-3.9356544	I H
-3.853233	M H
-1.198089	S H
-2.7660801	E H
-2.5902343	R H
-3.2653732	D H
-4.879161	V H
-3.6127307	L H
-1.6449133	P H
-0.7543712	C H
-0.74491465	W H
-3.4983325	B H
-4.4478674	F H
-1.6821147	X H
-5.234215	Q H
-3.744287	J H
-2.6315303	Z H
-2.912707	' H
-1.0102577	<s> A
-1.4825468	T A
-0.80249375	H A
-3.6657467	A A
-1.6631706	N A
-1.8344183	K A
-0.94526005	| A
-2.154768	Y A
-2.1362445	O A
-1.6919734	U A
-1.2011349	G A
-1.8085289	I A
-0.7958174	M A
-1.3764416	S A
-1.3094693	E A
-1.1875781	R A
-1.5400902	D A
-1.1588576	V A
-1.0571911	L A
-0.91950303	P A
-0.8952916	C A
-0.6728899	W A
-1.1239648	B A
-1.1628188	F A
-1.14474	X A
-3.7268474	Q A
-0.88297224	J A
-0.91379493	Z A
-2.1790733	' A
-1.5369115	<s> N
-2.999198	T N
-2.8344007	H N
-0.684204	A N
-2.0107567	N N
-0.9962669	K N
-1.6464219	| N
-2.5351386	Y N
-0.85471195	O N
-0.94208896	U N
-1.808225	G N
-0.5811067	I N
-2.4814787	M N
-2.4782245	S N
-1.0817661	E N
-1.6611855	R N
-2.291638	D N
-3.5047321	V N
-2.9936965	L N
-3.4760036	P N
-3.948393	C N
-1.3944497	W N
-3.4523275	B N
-4.0853496	F N
-4.369028	X N
-5.0716977	Q N
-3.7931588	J N
-3.061169	Z N
-2.327247	' N
-2.6083214	<s> K
-4.4829965	T K
-4.3201284	H K
-1.8424865	A K
-2.0034697	N K
-3.431796	K K
-2.1977525	| K
-3.6125066	Y K
-1.891624	O K
-2.9007485	U K
-4.69357	G K
-2.102879	I K
-4.565855	M K
-2.1850524	S K
-2.8781676	E K
-2.0011122	R K
-3.6640947	D K
-4.82878	V K
-2.152065	L K
-3.472194	P K
-1.2282538	C K
-3.142409	W K
-4.5453844	B K
-5.1622844	F K
-5.1748376	X K
-6.0796576	Q K
-3.9242005	J K
-2.6188755	Z K
-3.479622	' K
-0.6106949	T |
-1.0155634	H |
-1.1304423	A |
-0.60965806	N |
-0.54117334	K |
-0.1837852	Y |
-0.85807365	O |
-1.1828686	U |
-0.4830862	G |
-1.3332928	I |
-0.81937134	M |
-0.4242382	S |
-0.45616993	E |
-0.6405226	R |
-0.22043741	D |
-2.6354954	V |
-0.84990203	L |
-1.1122403	P |
-1.8112948	C |
-0.9954226	W |
-2.0069284	B |
-0.41920117	F |
-0.9205343	X |
-2.5417185	Q |
-2.2031858	J |
-1.1908025	Z |
-2.4968283	' |
-1.4636927	<s> Y
-1.8262143	T Y
-2.2564209	H Y
-1.5380642	A Y
-1.8875594	N Y
-1.9901141	K Y
-1.8635793	| Y
-4.6905656	Y Y
-2.3160818	O Y
-2.9678445	U Y
-2.4787104	G Y
-4.7165594	I Y
-1.3263483	M Y
-2.4736962	S Y
-1.8506805	E Y
-1.4808578	R Y
-1.9202164	D Y
-2.223074	V Y
-1.0527935	L Y
-2.194047	P Y
-2.1704698	C Y
-2.8586824	W Y
-1.1298116	B Y
-2.7455688	F Y
-2.4862757	X Y
-5.585557	Q Y
-3.931174	J Y
-1.5425892	Z Y
-2.7751667	' Y
-1.5088419	<s> O
-0.99580526	T O
-1.1310652	H O
-3.4790914	A O
-1.17859	N O
-2.1947043	K O
-1.1844335	| O
-0.8413321	Y O
-1.4246687	O O
-2.6714315	U O
-1.1327865	G O
-1.3555758	I O
-0.97499716	M O
-1.2970406	S O
-2.5420582	E O
-1.0680361	R O
-1.2877599	D O
-1.3242797	V O
-1.0825523	L O
-0.89185876	P O
-0.72944987	C O
-1.0046437	W O
-0.9479614	B O
-0.782311	F O
-2.073617	X O
-4.179697	Q O
-0.54793125	J O
-1.3551745	Z O
-2.7610474	' O
-2.4434175	<s> U
-1.8050452	T U
-1.9130158	H U
-1.9059058	A U
-2.2616892	N U
-2.6671486	K U
-1.9390552	| U
-3.4554548	Y U
-0.8565405	O U
-4.3422766	U U
-1.5735118	G U
-2.926447	I U
-1.4435921	M U
-1.4863822	S U
-2.9144647	E U
-1.7736132	R U
-1.9076118	D U
-2.7257261	V U
-1.7831355	L U
-1.4364312	P U
-1.486788	C U
-3.1382349	W U
-0.871835	B U
-1.4406936	F U
-1.9056425	X U
-0.001970607	Q U
-0.47721767	J U
-1.8984578	Z U
-3.057913	' U
-1.9986769	<s> G
-4.144541	T G
-4.693394	H G
-1.7392211	A G
-0.9070422	N G
-3.126835	K G
-1.6962262	| G
-3.4556725	Y G
-2.331564	O G
-1.2738198	U G
-1.9134246	G G
-1.4899116	I G
-4.5968413	M G
-3.2675765	S G
-2.3100674	E G
-2.0502744	R G
-2.2723265	D G
-4.674676	V G
-2.9801242	L G
-4.39435	P G
-4.9135165	C G
-4.167296	W G
-4.900109	B G
-4.319564	F G
-4.0143204	X G
-5.9482737	Q G
-4.856614	J G
-2.8215764	Z G
-3.2305775	' G
-0.78085417	<s> I
-1.2143884	T I
-0.8704384	H I
-1.35739	A I
-1.5351624	N I
-0.8747848	K I
-1.2149806	| I
-1.8355383	Y I
-1.997674	O I
-1.5756123	U I
-1.2885941	G I
-3.9635525	I I
-0.9843153	M I
-1.2913333	S I
-1.9203451	E I
-1.1029592	R I
-1.1938177	D I
-0.8401394	V I
-0.9574444	L I
-1.2189906	P I
-1.3238631	C I
-0.7853044	W I
-1.4042295	B I
-1.1080955	F I
-1.0186987	X I
-4.2695036	Q I
-1.5317148	J I
-0.9197004	Z I
-2.7578597	' I
-1.5007093	<s> M
-2.9349022	T M
-2.856467	H M
-1.5686365	A M
-2.968999	N M
-2.7954717	K M
-1.3596766	| M
-2.2948294	Y M
-1.2604381	O M
-1.6026354	U M
-2.7510602	G M
-1.3711493	I M
-1.7267938	M M
-2.1571698	S M
-1.7103797	E M
-1.8149318	R M
-2.5804749	D M
-5.1342235	V M
-2.2633796	L M
-2.9296598	P M
-4.3849206	C M
-3.6675215	W M
-2.976419	B M
-4.28535	F M
-3.2159488	X M
-5.538968	Q M
-4.341776	J M
-2.7004087	Z M
-1.384665	' M
-1.1578121	<s> S
-1.7520751	T S
-2.787226	H S
-1.0019604	A S
-1.4489944	N S
-1.3064003	K S
-1.1380708	| S
-1.466226	Y S
-1.5606736	O S
-0.8913612	U S
-1.6375988	G S
-0.89434993	I S
-1.586304	M S
-1.3206302	S S
-1.2041245	E S
-1.3173437	R S
-1.6273315	D S
-3.6278784	V S
-1.7474048	L S
-1.6318301	P S
-2.6853826	C S
-1.9288735	W S
-1.8086351	B S
-2.8331716	F S
-3.3506641	X S
-4.5638614	Q S
-4.43071	J S
-2.9815693	Z S
-0.2989993	' S
-1.8866718	<s> E
-1.0662102	T E
-0.33279273	H E
-3.059396	A E
-1.0616808	N E
-0.47911125	K E
-1.68172	| E
-1.2739778	Y E
-2.381567	O E
-1.5193956	U E
-0.88407516	G E
-1.4205071	I E
-0.5981278	M E
-0.9635178	S E
-1.5184149	E E
-0.634922	R E
-0.9315708	D E
-0.1393711	V E
-0.7861618	L E
-0.7279348	P E
-0.76638484	C E
-0.8028628	W E
-0.4893163	B E
-1.089539	F E
-1.1019417	X E
-4.6937704	Q E
-0.6702864	J E
-0.3290257	Z E
-2.125842	' E
-2.094417	<s> R
-1.5623736	T R
-1.9362887	H R
-1.0100973	A R
-3.0427516	N R
-2.813074	K R
-1.6500146	| R
-2.5387585	Y R
-0.9494467	O R
-0.83541745	U R
-1.1641493	G R
-1.3901047	I R
-3.22182	M R
-3.5963671	S R
-0.8730376	E R
-1.7250766	R R
-1.6945415	D R
-3.027013	V R
-2.6542866	L R
-0.87956274	P R
-1.3867975	C R
-1.9513782	W R
-1.1377167	B R
-1.1217885	F R
-5.0933647	X R
-4.3145146	Q R
-3.2337787	J R
-2.6508315	Z R
-1.5072348	' R
-1.719206	<s> D
-4.536557	T D
-3.5425065	H D
-1.2824019	A D
-0.7499154	N D
-3.6828384	K D
-1.5203578	| D
-2.891403	Y D
-1.7623204	O D
-1.6951692	U D
-3.064101	G D
-1.3890924	I D
-4.1414733	M D
-3.2615423	S D
-1.0845544	E D
-1.5231022	R D
-2.0101087	D D
-4.760453	V D
-1.1362306	L D
-4.1098537	P D
-3.8127117	C D
-2.5933478	W D
-3.1280546	B D
-4.8454247	F D
-4.194892	X D
-4.51943	Q D
-3.660057	J D
-3.2413945	Z D
-1.3561447	' D
-2.534647	<s> V
-4.884323	T V
-4.6396356	H V
-1.5710543	A V
-2.4444895	N V
-4.1488976	K V
-2.1801162	| V
-3.8103468	Y V
-1.7653911	O V
-3.2114935	U V
-4.754434	G V
-1.6605598	I V
-4.415658	M V
-4.1151624	S V
-1.7964259	E V
-2.2035658	R V
-2.5461578	D V
-3.7895677	V V
-2.2332911	L V
-5.328753	P V
-5.3935776	C V
-5.219241	W V
-3.1294672	B V
-5.449367	F V
-3.109736	X V
-4.1236	Q V
-4.693919	J V
-2.6281419	Z V
-1.4031992	' V
-1.8398149	<s> L
-1.8479303	T L
-2.8699903	H L
-1.1394653	A L
-2.0490541	N L
-1.7476001	K L
-1.5683875	| L
-2.4073746	Y L
-1.5216094	O L
-0.97976923	U L
-1.4952743	G L
-1.2862921	I L
-2.722209	M L
-2.0358665	S L
-1.4549311	E L
-1.8949015	R L
-2.0291789	D L
-3.6782203	V L
-0.8532243	L L
-1.0137215	P L
-1.3971066	C L
-2.1688697	W L
-0.9513766	B L
-1.5935876	F L
-2.8938982	X L
-6.0796576	Q L
-4.4432254	J L
-1.4144936	Z L
-1.1546032	' L
-1.8388164	<s> P
-4.0411234	T P
-4.469267	H P
-1.7689768	A P
-3.3569698	N P
-3.6688313	K P
-1.5268782	| P
-2.6141028	Y P
-1.7862849	O P
-1.3144172	U P
-4.1393003	G P
-2.1184573	I P
-1.3259119	M P
-1.6664993	S P
-2.0207992	E P
-2.3556523	R P
-3.9408312	D P
-5.572175	V P
-2.4286797	L P
-1.2154934	P P
-4.8669195	C P
-3.8437865	W P
-4.9487214	B P
-4.397864	F P
-0.64808637	X P
-5.7658315	Q P
-3.7148325	J P
-3.2051966	Z P
-2.9451005	' P
-1.748537	<s> C
-2.4486334	T C
-4.1411605	H C
-1.4493759	A C
-1.449942	N C
-3.6624017	K C
-1.3964912	| C
-2.9445856	Y C
-1.9935116	O C
-1.4207215	U C
-4.4714193	G C
-1.310803	I C
-3.102474	M C
-1.8440938	S C
-1.7607625	E C
-1.9741539	R C
-3.7158008	D C
-5.4921937	V C
-2.802247	L C
-4.2791047	P C
-1.731214	C C
-3.851872	W C
-4.1254845	B C
-4.9563046	F C
-0.8126807	X C
-5.7658315	Q C
-4.568998	J C
-3.1077144	Z C
-1.9923468	' C
-1.1554338	<s> W
-2.1466153	T W
-3.3079588	H W
-2.0232737	A W
-3.0447307	N W
-2.5325751	K W
-1.1470476	| W
-2.7515206	Y W
-1.3121394	O W
-4.362848	U W
-3.2229605	G W
-4.29145	I W
-3.9287813	M W
-2.2116385	S W
-2.143229	E W
-2.6293075	R W
-2.8396432	D W
-5.4571247	V W
-2.4165602	L W
-3.1520422	P W
-5.277301	C W
-4.986049	W W
-3.8982823	B W
-4.186481	F W
-2.910921	X W
-4.870396	Q W
-5.1846805	J W
-2.9227216	Z W
-3.5061653	' W
-1.2691123	<s> B
-3.8871613	T B
-3.1478295	H B
-1.7144504	A B
-3.2323544	N B
-3.1059806	K B
-1.3352355	| B
-2.5450926	Y B
-2.1475184	O B
-1.7823237	U B
-3.6864953	G B
-2.1645727	I B
-1.6581026	M B
-2.9014626	S B
-2.8821852	E B
-2.567284	R B
-3.760682	D B
-5.4685025	V B
-2.9572017	L B
-3.3325663	P B
-4.475528	C B
-3.3196282	W B
-2.054313	B B
-4.724967	F B
-3.319384	X B
-5.1029205	Q B
-4.897997	J B
-2.6670442	Z B
-3.0748706	' B
-1.6858946	<s> F
-3.041055	T F
-3.2208884	H F
-2.0658169	A F
-2.2982137	N F
-2.402276	K F
-1.3985767	| F
-3.2531338	Y F
-0.9900768	O F
-2.2386143	U F
-3.5725865	G F
-1.6167245	I F
-2.658891	M F
-2.840558	S F
-2.0483892	E F
-2.399916	R F
-3.009236	D F
-6.3750286	V F
-1.7308768	L F
-3.515401	P F
-5.1422825	C F
-2.9073632	W F
-4.5108013	B F
-1.386693	F F
-2.4781694	X F
-5.697087	Q F
-4.968558	J F
-3.6685102	Z F
-3.3412676	' F
-3.7782714	<s> X
-7.423985	T X
-7.1442785	H X
-3.1299899	A X
-3.186651	N X
-5.910988	K X
-4.0987144	| X
-4.3496776	Y X
-3.0109382	O X
-2.9971938	U X
-6.4015107	G X
-2.5872533	I X
-5.9313893	M X
-7.438675	S X
-2.0789096	E X
-4.898496	R X
-6.8395224	D X
-6.407176	V X
-4.6688843	L X
-6.7245193	P X
-4.9704876	C X
-6.3303742	W X
-6.8163834	B X
-7.424859	F X
-3.2149649	X X
-5.8785934	Q X
-5.830195	J X
-5.8603206	Z X
-5.731078	' X
-2.9465673	<s> Q
-5.7328677	T Q
-4.5525937	H Q
-4.092672	A Q
-2.9736185	N Q
-5.461151	K Q
-2.6280613	| Q
-5.7665896	Y Q
-3.675247	O Q
-3.9516234	U Q
-5.6340256	G Q
-3.3515923	I Q
-5.0479527	M Q
-2.8968446	S Q
-2.8866773	E Q
-3.6923642	R Q
-4.0409913	D Q
-6.520963	V Q
-4.853576	L Q
-5.974027	P Q
-2.6996903	C Q
-6.05291	W Q
-6.3398266	B Q
-7.1249557	F Q
-2.288728	X Q
-4.442246	Q Q
-6.196884	J Q
-3.9558542	Z Q
-4.5587783	' Q
-2.1453855	<s> J
-4.7767587	T J
-5.3090053	H J
-3.194904	A J
-2.9488683	N J
-4.185426	K J
-2.3613489	| J
-4.7997975	Y J
-3.7157695	O J
-4.1366863	U J
-5.4871535	G J
-4.3117557	I J
-5.3467526	M J
-4.582641	S J
-3.5038893	E J
-3.9110055	R J
-3.4126248	D J
-5.1911955	V J
-4.888922	L J
-4.3969383	P J
-5.6353326	C J
-5.7610693	W J
-2.1436832	B J
-4.8125634	F J
-6.043537	X J
-5.9878106	Q J
-3.7571747	J J
-3.562985	Z J
-4.560498	' J
-3.4991257	<s> Z
-3.5756223	T Z
-5.2439885	H Z
-2.7688785	A Z
-3.518473	N Z
-5.265308	K Z
-3.601999	| Z
-3.727996	Y Z
-3.304062	O Z
-3.0109866	U Z
-4.332241	G Z
-2.497633	I Z
-4.614332	M Z
-4.523265	S Z
-3.4656286	E Z
-3.988758	R Z
-4.5822597	D Z
-5.8225355	V Z
-4.119251	L Z
-4.65627	P Z
-3.9149542	C Z
-5.0352664	W Z
-5.436984	B Z
-5.6636477	F Z
-5.5033045	X Z
-6.0796576	Q Z
-5.3971505	J Z
-1.1746223	Z Z
-4.1625743	' Z
-2.511143	T '
-3.3273733	H '
-3.1775382	A '
-1.9423134	N '
-2.5471497	K '
-2.1595566	Y '
-3.066798	O '
-2.3743234	U '
-2.8548276	G '
-2.3798115	I '
-2.9844365	M '
-3.3476584	S '
-2.5279293	E '
-2.4808984	R '
-2.6745636	D '
-3.3225768	V '
-2.8617866	L '
-3.0326185	P '
-3.6688948	C '
-3.2008307	W '
-3.4454284	B '
-3.565803	F '
-2.810092	X '
-3.8634984	Q '
-3.3982358	J '
-2.715331	Z '
-5.070854	' '

\end\
