\data\
ngram 1=31
ngram 2=835
ngram 3=17421

\1-grams:
-2.7603185	<unk>	0
0	<s>	-6.8283105
-1.4911277	</s>	0
-1.460038	T	-2.0256827
-1.460038	H	-1.9806042
-1.460038	A	-2.0955904
-1.460038	N	-2.010115
-1.460038	K	-1.9438015
-1.4911277	|	-2.0675669
-1.460038	Y	-2.0483258
-1.460038	O	-2.089296
-1.460038	U	-2.0791397
-1.460038	G	-1.9202794
-1.460038	I	-2.0898242
-1.460038	M	-1.9333361
-1.460038	S	-2.0523713
-1.460038	E	-2.0908782
-1.460038	R	-1.9992007
-1.460038	D	-1.964005
-1.460038	V	-1.8663893
-1.460038	L	-1.9998503
-1.460038	P	-1.9210584
-1.460038	C	-1.9445395
-1.460038	W	-1.8547597
-1.460038	B	-1.9052066
-1.460038	F	-1.8311151
-1.460038	X	-1.6582528
-1.460038	Q	-1.4412593
-1.460038	J	-1.7199985
-1.460038	Z	-1.8920947
-1.4911277	'	-1.9952823

\2-grams:
-1.4043295	T </s>	0
-1.3750539	H </s>	0
-1.4589894	A </s>	0
-1.4045645	N </s>	0
-1.3894335	K </s>	0
-1.4269727	Y </s>	0
-1.467943	O </s>	0
-1.4425389	U </s>	0
-1.3659114	G </s>	0
-1.4842738	I </s>	0
-1.3277857	M </s>	0
-1.4157703	S </s>	0
-1.4695251	E </s>	0
-1.3625998	R </s>	0
-1.3584547	D </s>	0
-1.3498342	V </s>	0
-1.3784972	L </s>	0
-1.4045032	P </s>	0
-1.4482017	C </s>	0
-1.4502642	W </s>	0
-1.3508384	B </s>	0
-1.3862597	F </s>	0
-1.2547418	X </s>	0
-1.1445943	Q </s>	0
-1.3387359	J </s>	0
-1.3957568	Z </s>	0
-1.5424422	' </s>	0
-0.72141814	<s> T	-5.283708
-1.436264	T T	-5.21021
-1.3590025	H T	-5.2259955
-1.4587493	A T	-5.924729
-1.3885131	N T	-5.707064
-1.4269298	K T	-2.656669
-1.4147203	| T	-6.4628778
-1.4114847	Y T	-4.227352
-1.452455	O T	-5.4983454
-1.4422988	U T	-5.5263286
-1.4670728	G T	-4.09442
-1.452983	I T	-5.8675117
-1.4164643	M T	-3.100317
-1.4307694	S T	-5.8171177
-1.4540372	E T	-5.435798
-1.4097822	R T	-5.3202415
-1.4093467	D T	-3.0991607
-1.4614841	V T	-1.1748893
-1.4104319	L T	-4.7641196
-1.4243889	P T	-4.732441
-1.3551209	C T	-5.2721467
-1.5341685	W T	-3.2633586
-1.5546546	B T	-4.2124352
-1.3481691	F T	-4.9383693
-1.4088304	X T	-4.5381975
-1.7901518	Q T	-0.29610077
-1.4407022	J T	-0.96643627
-1.5135164	Z T	-2.2861812
-1.389474	' T	-4.806535
-1.035166	<s> H	-5.0784035
-1.4040809	T H	-6.4054856
-1.5273976	H H	-2.6707854
-1.4587493	A H	-4.0634203
-1.4932431	N H	-3.9089456
-1.3379934	K H	-3.2215617
-1.4147203	| H	-6.1190248
-1.4425176	Y H	-3.3698378
-1.4676943	O H	-4.2229667
-1.457538	U H	-2.7800214
-1.2986777	G H	-5.38708
-1.452983	I H	-2.8864489
-1.5547578	M H	-2.7569802
-1.4307694	S H	-5.5234604
-1.4692764	E H	-4.2687273
-1.4630249	R H	-4.2050166
-1.3916188	D H	-3.3883743
-1.7376618	V H	-1.6077805
-1.5031809	L H	-3.1383593
-1.2994567	P H	-4.5439925
-1.3076985	C H	-5.542132
-1.2179186	W H	-5.7475004
-1.3883348	B H	-2.825449
-1.4271935	F H	-2.2558956
-1.5999709	X H	-4.00888
-1.6171019	Q H	-0.55827135
-1.4127518	J H	-1.8048632
-1.3954252	Z H	-2.2664413
-1.4228961	' H	-2.6395993
-1.0102577	<s> A	-4.9751415
-1.3888415	T A	-5.3900642
-1.3437631	H A	-5.9152083
-1.4739885	A A	-3.1498225
-1.3732737	N A	-5.0846043
-1.3069606	K A	-3.9641688
-1.4147203	| A	-6.305914
-1.4114847	Y A	-4.048945
-1.4676943	O A	-4.65373
-1.4422988	U A	-4.6720104
-1.2986777	G A	-5.016656
-1.452983	I A	-4.9355907
-1.2964951	M A	-5.5131187
-1.4155301	S A	-5.33505
-1.4540372	E A	-5.7020097
-1.3623596	R A	-5.489395
-1.3271639	D A	-5.011043
-1.2295483	V A	-4.731663
-1.3782486	L A	-5.4625907
-1.2842174	P A	-5.215905
-1.3229377	C A	-5.4012117
-1.2179186	W A	-5.6063266
-1.2683655	B A	-4.965235
-1.2813342	F A	-5.1102967
-1.3510062	X A	-3.9868002
-1.1440692	Q A	-1.2986383
-1.1702175	J A	-4.1621685
-1.270493	Z A	-3.8048398
-1.389474	' A	-3.1617897
-1.5369114	<s> N	-4.5647564
-1.436264	T N	-4.0209475
-1.3911856	H N	-3.9238665
-1.4587493	A N	-6.1274796
-1.4554566	N N	-4.751053
-1.3714155	K N	-5.0407023
-1.4147203	| N	-5.604752
-1.4114847	Y N	-3.6826093
-1.452455	O N	-5.935262
-1.4422988	U N	-5.421895
-1.4236099	G N	-4.478534
-1.452983	I N	-6.163013
-1.3971603	M N	-3.9082384
-1.4629526	S N	-4.318733
-1.4540372	E N	-5.929713
-1.4268147	R N	-5.0350533
-1.3916188	D N	-4.448891
-1.3495176	V N	-2.5025382
-1.5031809	L N	-3.6190095
-1.4913313	P N	-2.9113927
-1.3898814	C N	-2.7229602
-1.337888	W N	-4.915801
-1.5266281	B N	-2.8838365
-1.5816927	F N	-2.4173057
-1.5131999	X N	-1.1903926
-1.4430501	Q N	-0.5093318
-1.4705759	J N	-1.5357922
-1.4388882	Z N	-2.0812066
-1.4058636	' N	-3.0725274
-2.6083202	<s> K	-3.5504744
-1.5088109	T K	-2.592801
-1.575699	H K	-2.5887744
-1.4587493	A K	-4.984437
-1.5803877	N K	-4.759545
-1.5652232	K K	-2.6250682
-1.4147203	| K	-5.099549
-1.51215	Y K	-2.7492085
-1.452455	O K	-4.9084077
-1.457538	U K	-3.4812846
-1.7458006	G K	-1.7874217
-1.452983	I K	-4.6552753
-1.6127448	M K	-2.0649846
-1.4307694	S K	-4.5738645
-1.4692764	E K	-4.1566396
-1.4823289	R K	-4.691101
-1.6434137	D K	-3.1806428
-1.6505227	V K	-1.6348205
-1.5031809	L K	-4.426375
-1.6326488	P K	-3.0289896
-1.4276679	C K	-5.068249
-1.6802809	W K	-3.2394214
-1.7307277	B K	-1.988595
-1.6137742	F K	-1.5003114
-1.7085204	X K	-0.6348502
-1.9120703	Q K	-0.3047793
-1.6161675	J K	-1.4780997
-1.4623678	Z K	-2.472917
-1.5198007	' K	-2.064585
-1.4043295	T |	-6.309341
-1.3440032	H |	-5.749563
-1.4589894	A |	-5.728666
-1.3735139	N |	-6.185541
-1.3224485	K |	-5.304838
-1.4117249	Y |	-6.0673523
-1.4526951	O |	-5.9793253
-1.4425389	U |	-5.22854
-1.3481718	G |	-5.782129
-1.4532231	I |	-5.4582515
-1.2967352	M |	-5.536989
-1.4157703	S |	-6.3346786
-1.4542773	E |	-6.6027336
-1.3625998	R |	-6.0838757
-1.327404	D |	-6.3781204
-1.2942818	V |	-3.302451
-1.3784972	L |	-5.7173047
-1.3666904	P |	-5.0705924
-1.3553888	C |	-4.5326333
-1.2826521	W |	-5.3312182
-1.2996562	B |	-4.129697
-1.3308002	F |	-5.901339
-1.1245456	X |	-4.201104
-1.0384719	Q |	-2.4061546
-1.2196835	J |	-2.8893824
-1.2707417	Z |	-3.5652
-1.4061315	' |	-2.898438
-1.4636927	<s> Y	-4.5734124
-1.3888415	T Y	-5.056454
-1.374796	H Y	-4.475316
-1.4587493	A Y	-5.273619
-1.4043067	N Y	-4.860215
-1.354383	K Y	-3.8671308
-1.4147203	| Y	-5.402835
-1.5951192	Y Y	-1.8901666
-1.4676943	O Y	-4.4879274
-1.457538	U Y	-3.4605975
-1.4034077	G Y	-3.790841
-1.4682224	I Y	-2.2290893
-1.3609501	M Y	-4.9978275
-1.4629526	S Y	-4.2478533
-1.4540372	E Y	-5.1646843
-1.3775989	R Y	-5.1961155
-1.3581967	D Y	-4.672763
-1.3697197	V Y	-3.7261047
-1.3630093	L Y	-5.4669886
-1.4455769	P Y	-3.9765704
-1.3721535	C Y	-4.1678796
-1.2489516	W Y	-3.4766753
-1.3157879	B Y	-4.9593887
-1.406049	F Y	-3.645989
-1.4088304	X Y	-2.7114937
-1.695064	Q Y	-0.30598253
-1.4407022	J Y	-1.3333123
-1.3374366	Z Y	-3.2233143
-1.440624	' Y	-2.6675186
-1.5088419	<s> O	-4.4805346
-1.4040809	T O	-5.876806
-1.3437631	H O	-5.5866365
-1.4739885	A O	-3.347832
-1.3732737	N O	-5.569185
-1.3379934	K O	-3.6038828
-1.4147203	| O	-6.066741
-1.4267241	Y O	-5.362381
-1.452455	O O	-5.3653054
-1.4422988	U O	-3.70261
-1.2986777	G O	-5.085004
-1.452983	I O	-5.388544
-1.3117343	M O	-5.3339386
-1.4307694	S O	-5.4144516
-1.4692764	E O	-4.4794784
-1.3623596	R O	-5.6089373
-1.3424032	D O	-5.2633734
-1.2447876	V O	-4.5662413
-1.3782486	L O	-5.4372296
-1.2994567	P O	-5.2435493
-1.3229377	C O	-5.5670533
-1.2179186	W O	-5.2898126
-1.2836047	B O	-5.1412387
-1.3134673	F O	-5.4908047
-1.4088304	X O	-3.0765948
-1.3566439	Q O	-1.1175466
-1.185987	J O	-4.4972095
-1.270493	Z O	-3.3612094
-1.389474	' O	-2.5837924
-2.4434168	<s> U	-3.557586
-1.3888415	T U	-5.067566
-1.3590025	H U	-4.804686
-1.4587493	A U	-4.9057775
-1.3885131	N U	-4.4860854
-1.3379934	K U	-3.1517918
-1.4147203	| U	-5.3160048
-1.4425176	Y U	-2.7739189
-1.452455	O U	-5.9334335
-1.4897212	U U	-2.1549885
-1.2986777	G U	-4.6595187
-1.452983	I U	-3.8317075
-1.3117343	M U	-4.865344
-1.4307694	S U	-5.2251096
-1.4540372	E U	-4.0970144
-1.3775989	R U	-4.9033604
-1.3424032	D U	-4.6435213
-1.3117311	V U	-3.2292526
-1.3782486	L U	-4.7366467
-1.3152503	P U	-4.730011
-1.3229377	C U	-4.8097153
-1.2823737	W U	-3.188406
-1.2836047	B U	-5.2173653
-1.2971035	F U	-4.8798466
-1.4409118	X U	-3.329758
-0.9377235	Q U	-4.9686513
-1.2023505	J U	-4.567923
-1.3197087	Z U	-2.8293846
-1.4058636	' U	-2.367261
-1.9986765	<s> G	-4.1385746
-1.550201	T G	-3.0654383
-1.4839348	H G	-2.291573
-1.4739885	A G	-5.1076717
-1.4377288	N G	-5.8446183
-1.6232103	K G	-3.0441449
-1.4147203	| G	-5.568983
-1.4425176	Y G	-2.8361988
-1.4676943	O G	-4.4840713
-1.4422988	U G	-5.125374
-1.4670728	G G	-4.3395753
-1.452983	I G	-5.254208
-1.5547578	M G	-1.9959104
-1.497713	S G	-3.671696
-1.4692764	E G	-4.7014117
-1.4630249	R G	-4.6910114
-1.5107985	D G	-4.3569407
-1.9137229	V G	-1.7012713
-1.5466439	L G	-3.729247
-1.5705066	P G	-2.2144465
-1.728673	C G	-1.7511764
-1.6011088	W G	-2.357051
-1.5846152	B G	-1.560006
-1.6860622	F G	-2.3983338
-1.7085204	X G	-1.5606726
-2.4618068	Q G	-0.30749124
-1.8367671	J G	-0.8917831
-1.5135164	Z G	-2.48393
-1.4591064	' G	-2.3582778
-0.7808541	<s> I	-5.2097273
-1.3888415	T I	-5.6582227
-1.3437631	H I	-5.8472633
-1.4587493	A I	-5.4542937
-1.3732737	N I	-5.212612
-1.3221998	K I	-4.939042
-1.4147203	| I	-6.0361934
-1.4267241	Y I	-4.4045134
-1.452455	O I	-4.7923
-1.4422988	U I	-4.7984295
-1.2986777	G I	-4.9291964
-1.4682224	I I	-2.837893
-1.3117343	M I	-5.3246207
-1.4155301	S I	-5.4201584
-1.4540372	E I	-5.091134
-1.3623596	R I	-5.574014
-1.3424032	D I	-5.3573155
-1.2295483	V I	-5.050381
-1.3782486	L I	-5.5623374
-1.2994567	P I	-4.9164176
-1.3076985	C I	-4.97264
-1.233158	W I	-5.4939117
-1.2993983	B I	-4.684971
-1.2971035	F I	-5.168906
-1.2543312	X I	-4.1072764
-1.2526273	Q I	-0.81554544
-1.185987	J I	-3.528666
-1.270493	Z I	-3.7888768
-1.4228961	' I	-2.6190724
-1.5007092	<s> M	-4.52945
-1.4710244	T M	-4.27228
-1.4444284	H M	-4.0153646
-1.4587493	A M	-5.258287
-1.5134453	N M	-3.9919744
-1.5388963	K M	-3.3983586
-1.4147203	| M	-5.8953834
-1.4267241	Y M	-3.9850304
-1.452455	O M	-5.544776
-1.4422988	U M	-4.7613487
-1.5697275	G M	-3.8236165
-1.452983	I M	-5.3882103
-1.4801296	M M	-4.6337624
-1.446563	S M	-4.803349
-1.4540372	E M	-5.3111567
-1.3933924	R M	-4.897251
-1.5107985	D M	-4.281872
-1.4366623	V M	-1.1486281
-1.4829786	L M	-4.2820635
-1.6004671	P M	-3.5981064
-1.65613	C M	-2.3563645
-1.6011088	W M	-2.7680237
-1.5846152	B M	-3.530398
-1.5816927	F M	-2.508152
-1.4409118	X M	-2.4124815
-1.695064	Q M	-0.46278203
-1.6617166	J M	-1.3586079
-1.5135164	Z M	-2.5324333
-1.4058636	' M	-4.1000915
-1.1578121	<s> S	-4.8431907
-1.3888415	T S	-5.1398015
-1.4082181	H S	-3.9602606
-1.4587493	A S	-5.819781
-1.3885131	N S	-5.31402
-1.4269298	K S	-4.521971
-1.4147203	| S	-6.1131034
-1.4267241	Y S	-4.7567525
-1.452455	O S	-5.239358
-1.4422988	U S	-5.487863
-1.4034077	G S	-4.6058526
-1.452983	I S	-5.86501
-1.4578546	M S	-4.737872
-1.446563	S S	-5.4061017
-1.4540372	E S	-5.8174124
-1.4097822	R S	-5.3748693
-1.3745863	D S	-4.9390416
-1.3302135	V S	-2.3751674
-1.4274642	L S	-4.787617
-1.3486724	P S	-4.545424
-1.4083637	C S	-3.6755784
-1.4498545	W S	-4.3977675
-1.4519999	B S	-4.31999
-1.3858863	F S	-3.5207253
-1.5131999	X S	-1.9639682
-1.3977016	Q S	-1.1000644
-1.4127518	J S	-0.9837545
-1.4623678	Z S	-1.9399989
-1.389474	' S	-5.0574675
-1.8866715	<s> E	-4.0987277
-1.3888415	T E	-5.806401
-1.3590025	H E	-6.384909
-1.4587493	A E	-3.7522876
-1.3732737	N E	-5.686094
-1.3069606	K E	-5.329533
-1.4147203	| E	-5.569454
-1.4114847	Y E	-4.9336214
-1.452455	O E	-4.408407
-1.4422988	U E	-4.8445883
-1.3144712	G E	-5.3337154
-1.452983	I E	-5.3236127
-1.2964951	M E	-5.7108083
-1.4307694	S E	-5.7479744
-1.4540372	E E	-5.4930644
-1.3623596	R E	-6.0420513
-1.3424032	D E	-5.619562
-1.2295483	V E	-5.7511497
-1.3782486	L E	-5.73362
-1.2842174	P E	-5.407473
-1.3229377	C E	-5.540176
-1.233158	W E	-5.4763536
-1.2836047	B E	-5.599884
-1.2661175	F E	-5.1835766
-1.2999842	X E	-4.0073457
-1.2846091	Q E	-0.67766863
-1.185987	J E	-4.3748546
-1.270493	Z E	-4.3834376
-1.389474	' E	-3.215021
-2.0944166	<s> R	-4.155174
-1.4040809	T R	-5.3843555
-1.374796	H R	-4.8124475
-1.4587493	A R	-5.801586
-1.4932431	N R	-3.9063544
-1.354383	K R	-3.1508186
-1.4147203	| R	-5.6163993
-1.4267241	Y R	-3.6959887
-1.452455	O R	-5.8405275
-1.4422988	U R	-5.5324526
-1.2986777	G R	-5.194336
-1.452983	I R	-5.364073
-1.4801296	M R	-3.2929673
-1.5354995	S R	-3.302722
-1.4540372	E R	-6.1384416
-1.4630249	R R	-4.975225
-1.3581967	D R	-4.979979
-1.3117311	V R	-3.0895345
-1.4274642	L R	-4.197826
-1.3152503	P R	-5.3311987
-1.3387313	C R	-4.9876895
-1.3001015	W R	-4.438375
-1.2836047	B R	-5.066876
-1.3134673	F R	-5.3059897
-1.5131999	X R	-0.665305
-1.4430501	Q R	-1.0941155
-1.5372992	J R	-2.203718
-1.5135164	Z R	-2.5781322
-1.389474	' R	-3.8880286
-1.7192059	<s> D	-4.3551817
-1.5088109	T D	-2.5724227
-1.4839348	H D	-3.3645911
-1.4587493	A D	-5.5445213
-1.4206963	N D	-6.013099
-1.5652232	K D	-2.5364225
-1.4147203	| D	-5.7308164
-1.4267241	Y D	-3.3944967
-1.452455	O D	-5.042894
-1.4422988	U D	-4.699849
-1.5153742	G D	-3.4017572
-1.452983	I D	-5.3702674
-1.5547578	M D	-2.2939553
-1.446563	S D	-3.6377401
-1.4540372	E D	-5.942165
-1.4268147	R D	-5.1691113
-1.4471333	D D	-4.5871515
-1.4131827	V D	-1.5419426
-1.4451922	L D	-5.3975863
-1.6326488	P D	-2.4059632
-1.491333	C D	-2.797138
-1.5042078	W D	-3.7713344
-1.5266281	B D	-3.2334437
-1.6137742	F D	-1.8480302
-1.5131999	X D	-1.3463073
-1.6171019	Q D	-1.4740661
-1.5372992	J D	-1.8821137
-1.5135164	Z D	-1.814148
-1.4058636	' D	-4.1326632
-2.534646	<s> V	-3.6519947
-1.5088109	T V	-2.287239
-1.5051227	H V	-2.4349513
-1.4739885	A V	-5.2824755
-1.5346333	N V	-4.5293126
-1.5652232	K V	-2.3841772
-1.4147203	| V	-5.0914116
-1.4589072	Y V	-2.738951
-1.4676943	O V	-5.0921884
-1.4897212	U V	-3.3359435
-1.5996882	G V	-2.0003185
-1.4682224	I V	-5.1811447
-1.5284309	M V	-2.241451
-1.4629526	S V	-2.8432937
-1.4692764	E V	-5.2383814
-1.5025312	R V	-4.61038
-1.4885234	D V	-4.2228203
-1.4614841	V V	-2.4076738
-1.4274642	L V	-4.4819117
-1.6326488	P V	-1.2916834
-1.5939876	C V	-1.3448038
-1.7771773	W V	-1.7380154
-1.6515555	B V	-3.46375
-1.6137742	F V	-1.29024
-1.4409118	X V	-2.5076585
-1.3191347	Q V	-1.569992
-1.5372992	J V	-0.88811874
-1.5135164	Z V	-2.6727839
-1.4591064	' V	-4.308017
-1.8398148	<s> L	-4.375713
-1.4198744	T L	-5.2156878
-1.425946	H L	-3.8774962
-1.4587493	A L	-5.6722183
-1.473939	N L	-4.84954
-1.3714155	K L	-4.275058
-1.4147203	| L	-5.7031403
-1.4267241	Y L	-3.8326766
-1.452455	O L	-5.268365
-1.4422988	U L	-5.384215
-1.3308609	G L	-4.9024286
-1.452983	I L	-5.4578276
-1.5036091	M L	-3.794454
-1.4307694	S L	-4.759675
-1.4692764	E L	-5.560434
-1.4823289	R L	-4.823918
-1.4471333	D L	-4.6258874
-1.3117311	V L	-2.401889
-1.3782486	L L	-5.6817975
-1.3152503	P L	-5.2780156
-1.3387313	C L	-5.0265584
-1.3580902	W L	-4.177952
-1.2993983	B L	-5.36364
-1.2971035	F L	-4.870535
-1.3510062	X L	-2.560731
-1.9120703	Q L	-0.3047793
-1.5026574	J L	-1.1607298
-1.4388882	Z L	-3.6650083
-1.389474	' L	-4.2739444
-1.8388162	<s> P	-4.296026
-1.5959555	T P	-3.1910317
-1.575699	H P	-2.5620394
-1.4587493	A P	-5.073741
-1.5346333	N P	-3.5958562
-1.6901506	K P	-2.6031458
-1.4147203	| P	-5.724296
-1.4589072	Y P	-3.7515197
-1.452455	O P	-5.0137467
-1.4897212	U P	-5.095694
-1.6666284	G P	-2.5232725
-1.4682224	I P	-4.656697
-1.4164643	M P	-5.008685
-1.4307694	S P	-5.1055593
-1.4692764	E P	-5.021714
-1.5694736	R P	-4.414245
-1.710354	D P	-3.0689735
-1.5779797	V P	-0.8516721
-1.5243689	L P	-4.1792607
-1.4243889	P P	-4.9690585
-1.6908885	C P	-1.8707826
-1.7260324	W P	-2.702696
-1.6893399	B P	-1.4670254
-1.6137742	F P	-2.3603024
-1.650863	X P	-4.737597
-1.7901518	Q P	-0.29007983
-1.5749454	J P	-2.0863082
-1.6762282	Z P	-2.100307
-1.440624	' P	-2.6054776
-1.7485367	<s> C	-4.4026456
-1.436264	T C	-4.707797
-1.5273976	H C	-2.8237267
-1.4739885	A C	-5.3723655
-1.3885131	N C	-5.3211613
-1.5932497	K C	-2.5948558
-1.4147203	| C	-5.8821125
-1.4589072	Y C	-3.435156
-1.4676943	O C	-4.8042693
-1.4422988	U C	-4.9838276
-1.6318698	G C	-2.1264775
-1.452983	I C	-5.443374
-1.5827842	M C	-3.2217019
-1.4307694	S C	-4.9777737
-1.4692764	E C	-5.2763777
-1.4630249	R C	-4.779561
-1.6755953	D C	-3.138948
-1.487811	V C	-0.8289133
-1.4104319	L C	-3.8828409
-1.5424801	P C	-2.2018864
-1.469058	C C	-4.702262
-1.5663501	W C	-2.7091687
-1.6515555	B C	-2.2807581
-1.6137742	F C	-1.6994147
-1.4755535	X C	-4.5574346
-2.4618068	Q C	-0.48358253
-1.6617166	J C	-1.0491835
-1.5135164	Z C	-1.9438701
-1.440624	' C	-3.5599601
-1.1554338	<s> W	-5.0941567
-1.4710244	T W	-4.931248
-1.5051227	H W	-3.775519
-1.4739885	A W	-4.78841
-1.5346333	N W	-3.9986975
-1.3891433	K W	-3.6839564
-1.4147203	| W	-6.1749024
-1.4936676	Y W	-3.7247255
-1.4676943	O W	-5.493075
-1.5244815	U W	-2.1194122
-1.4236099	G W	-3.3167362
-1.484016	I W	-2.692855
-1.6127448	M W	-2.8052344
-1.446563	S W	-4.8236833
-1.4692764	E W	-4.878308
-1.5025312	R W	-4.2535176
-1.5107985	D W	-3.9676614
-1.7376618	V W	-0.9921916
-1.5466439	L W	-4.451397
-1.5161532	P W	-3.3728583
-1.5939876	C W	-1.3787317
-1.6802809	W W	-1.6474035
-1.5266281	B W	-2.5741336
-1.551819	F W	-2.607021
-1.4409118	X W	-2.7006977
-1.3191347	Q W	-0.76612914
-1.6161675	J W	-0.87247145
-1.4871895	Z W	-2.3983529
-1.4784105	' W	-2.2169964
-1.2691123	<s> B	-4.9094167
-1.4895068	T B	-3.4030664
-1.5508772	H B	-3.8514576
-1.4587493	A B	-5.111268
-1.473939	N B	-3.7694952
-1.6553919	K B	-3.1005394
-1.4147203	| B	-5.936292
-1.4267241	Y B	-3.8737266
-1.4676943	O B	-4.668117
-1.4422988	U B	-4.5969005
-1.6666284	G B	-2.9114041
-1.452983	I B	-4.610581
-1.4578546	M B	-4.7094913
-1.4307694	S B	-4.0484114
-1.4540372	E B	-4.154955
-1.5025312	R B	-4.191876
-1.5590997	D B	-3.1064613
-1.6919105	V B	-0.972455
-1.5466439	L B	-3.692707
-1.6326488	P B	-3.1926415
-1.728673	C B	-2.3253906
-1.7771773	W B	-3.2340727
-1.4754795	B B	-4.17186
-1.6137742	F B	-2.0328145
-1.5544219	X B	-2.1935303
-1.7901518	Q B	-0.8233018
-1.5372992	J B	-0.8556739
-1.5135164	Z B	-2.526968
-1.440624	' B	-2.5170095
-1.6858945	<s> F	-4.51074
-1.4710244	T F	-4.1531997
-1.5508772	H F	-3.7983425
-1.4587493	A F	-4.7919936
-1.5346333	N F	-4.576055
-1.5652232	K F	-3.7482111
-1.4147203	| F	-5.882382
-1.51215	Y F	-3.2046542
-1.4676943	O F	-5.819163
-1.4733316	U F	-4.167216
-1.5417011	G F	-3.070284
-1.452983	I F	-5.212861
-1.6127448	M F	-3.899294
-1.4629526	S F	-4.2029953
-1.4692764	E F	-4.9928746
-1.6206223	R F	-4.3243423
-1.6434137	D F	-3.8895135
-1.7888069	V F	-0.2936527
-1.5243689	L F	-4.814566
-1.4913313	P F	-2.7585795
-1.6908885	C F	-1.6392627
-1.7260324	W F	-3.6677547
-1.7307277	B F	-2.0340874
-1.3481691	F F	-4.921632
-1.650863	X F	-3.1549003
-1.695064	Q F	-0.2936527
-1.915325	J F	-0.9648115
-1.8145123	Z F	-1.700627
-1.4784105	' F	-2.2348888
-3.7782545	<s> X	-2.5028012
-2.0060823	T X	-0.36741966
-1.9030217	H X	-0.28355572
-1.4739885	A X	-3.7061205
-1.7564638	N X	-3.703432
-2.1671808	K X	-0.9229152
-1.4311248	| X	-3.2272222
-1.6434206	Y X	-2.236947
-1.4834878	O X	-3.8264606
-1.542964	U X	-3.4610038
-2.1436586	G X	-0.5332713
-1.5004056	I X	-4.1987123
-1.9806696	M X	-1.0802068
-2.2757504	S X	-0.30613315
-1.4692764	E X	-4.9478097
-1.8704733	R X	-2.1442506
-2.0905015	D X	-0.40243345
-1.992886	V X	-0.456981
-1.7114408	L X	-2.2924466
-2.1444378	P X	-0.48994735
-1.6908885	C X	-1.753864
-1.9812564	W X	-0.62179124
-2.1285858	B X	-0.29502803
-2.8111289	F X	-0.27586156
-1.3247464	X X	-2.3357546
-2.3657572	Q X	-0.26209414
-1.770266	J X	-0.27987665
-2.7171247	Z X	-0.27586156
-2.2186615	' X	-0.38502902
-2.9465647	<s> Q	-3.510285
-1.8512037	T Q	-2.0000699
-1.8061254	H Q	-2.9579792
-1.4587493	A Q	-2.995694
-1.6052096	N Q	-4.0901666
-1.7693228	K Q	-1.3115206
-1.4147203	| Q	-4.812315
-1.6185988	Y Q	-1.6761634
-1.4834878	O Q	-3.4404886
-1.5824703	U Q	-2.8047185
-1.8426969	G Q	-1.4440616
-1.5004056	I Q	-3.7820196
-1.8557537	M Q	-1.8398633
-1.5161954	S Q	-4.1062126
-1.4692764	E Q	-4.468089
-1.8704733	R Q	-3.4732363
-1.7895262	D Q	-3.3817787
-2.2146618	V Q	-0.6079775
-1.9222678	L Q	-2.4448473
-1.9683919	P Q	-1.0207018
-1.6908885	C Q	-4.0671225
-2.078139	W Q	-1.5627638
-1.8856063	B Q	-0.773473
-2.1224186	F Q	-0.38612878
-1.7085204	X Q	-3.9302816
-1.4936918	Q Q	-1.245251
-2.700012	J Q	-0.27586156
-1.8145123	Z Q	-1.9122494
-1.674691	' Q	-1.8659025
-2.1453853	<s> J	-4.051249
-1.529013	T J	-2.5805216
-1.575699	H J	-1.9813154
-1.4587493	A J	-3.6640642
-1.5569082	N J	-3.9865038
-1.5140746	K J	-2.2462482
-1.4147203	| J	-4.957431
-1.6185988	Y J	-1.8769279
-1.4834878	O J	-3.2558837
-1.4733316	U J	-2.388483
-1.5996882	G J	-1.3224676
-1.5004056	I J	-2.4999688
-1.5827842	M J	-1.4037172
-1.5354995	S J	-2.706325
-1.4692764	E J	-3.5750487
-1.7107911	R J	-3.0693314
-1.4673355	D J	-3.3454318
-1.7888069	V J	-1.3374194
-1.5031809	L J	-2.0017807
-1.7051919	P J	-2.2852857
-1.991873	C J	-1.447602
-1.9020933	W J	-1.246985
-1.4519999	B J	-4.407552
-1.4728465	F J	-2.0936382
-2.6382663	X J	-0.3047793
-2.3657572	Q J	-0.3047793
-1.5749454	J J	-1.7644529
-1.8145123	Z J	-1.7533331
-1.590377	' J	-1.4084063
-3.499117	<s> Z	-2.628519
-1.4198744	T Z	-3.3226497
-1.6921946	H Z	-1.8305945
-1.4587493	A Z	-4.073839
-1.659563	N Z	-3.2879596
-1.6553919	K Z	-1.066635
-1.4147203	| Z	-3.68021
-1.5314541	Y Z	-2.7769945
-1.4834878	O Z	-3.5376735
-1.4733316	U Z	-3.400422
-1.7458006	G Z	-2.3862586
-1.4682224	I Z	-4.2617264
-1.6127448	M Z	-2.195312
-1.4799851	S Z	-2.3065038
-1.4692764	E Z	-3.5691786
-1.5459942	R Z	-2.7468727
-1.613453	D Z	-2.1884375
-1.8467891	V Z	-0.6366057
-1.6492984	L Z	-2.5375032
-1.7051919	P Z	-2.1571867
-1.469058	C Z	-2.588472
-1.9020933	W Z	-1.7479583
-1.8276241	B Z	-1.1764474
-1.6860622	F Z	-1.2017791
-1.7750216	X Z	-0.5110675
-1.9120703	Q Z	-0.27586156
-2.0113018	J Z	-0.48420212
-1.4388882	Z Z	-3.6393707
-1.5655552	' Z	-1.5702333
-1.4201323	T '	-4.4033146
-1.4447312	H '	-3.4432638
-1.4589894	A '	-3.6380317
-1.4045645	N '	-4.820701
-1.4909616	K '	-3.3521087
-1.4269727	Y '	-4.1129785
-1.467943	O '	-3.7332342
-1.4577867	U '	-4.0259995
-1.4909393	G '	-3.4748437
-1.4532231	I '	-4.3993816
-1.3974631	M '	-3.3608387
-1.4468209	S '	-3.3990438
-1.4695251	E '	-4.4835496
-1.4100499	R '	-4.2366405
-1.4281319	D '	-3.9063544
-1.4882462	V '	-2.7437897
-1.4106996	L '	-3.7054205
-1.4459251	P '	-3.1882567
-1.4694062	C '	-2.7345161
-1.4502642	W '	-3.1838028
-1.3693335	B '	-2.7231565
-1.4064401	F '	-2.8191965
-1.476237	X '	-2.5182116
-1.3199207	Q '	-1.6245973
-1.4412494	J '	-1.8665127
-1.4875991	Z '	-2.2147665
-1.6451946	' '	-0.93351215

\3-grams:
-6.5673347	<s> T </s>
-2.5520875	T T </s>
-1.2067407	H T </s>
-2.016922	A T </s>
-1.4844723	N T </s>
-2.2293766	K T </s>
-4.4324527	| T </s>
-3.7690728	Y T </s>
-1.8806071	O T </s>
-1.8358351	U T </s>
-2.890288	G T </s>
-1.5069928	I T </s>
-1.5777655	M T </s>
-1.730822	S T </s>
-1.5892906	E T </s>
-1.5175731	R T </s>
-1.2964009	D T </s>
-1.0404152	V T </s>
-1.5821698	L T </s>
-1.8313533	P T </s>
-1.6240957	C T </s>
-2.193022	W T </s>
-1.4701174	B T </s>
-1.7884055	F T </s>
-1.8277525	X T </s>
-0.56347275	J T </s>
-1.4761065	Z T </s>
-1.7466187	' T </s>
-6.3121777	<s> H </s>
-2.3981886	T H </s>
-1.9612993	H H </s>
-1.1608227	A H </s>
-3.4796379	N H </s>
-2.2035005	K H </s>
-3.9969277	| H </s>
-3.637685	Y H </s>
-1.5972812	O H </s>
-1.0411175	U H </s>
-1.8861858	G H </s>
-2.4060323	I H </s>
-3.161182	M H </s>
-2.1058702	S H </s>
-1.495436	E H </s>
-3.336025	R H </s>
-2.7771614	D H </s>
-2.6597424	V H </s>
-3.6582787	L H </s>
-1.8638616	P H </s>
-1.8119242	C H </s>
-5.6792893	W H </s>
-2.6470776	B H </s>
-2.8337145	F H </s>
-2.7642927	J H </s>
-2.4138944	Z H </s>
-2.6949544	' H </s>
-6.30469	<s> A </s>
-2.725727	T A </s>
-3.3682437	H A </s>
-2.214766	A A </s>
-2.0603938	N A </s>
-1.770902	K A </s>
-3.9658508	| A </s>
-2.2253711	Y A </s>
-2.908636	O A </s>
-2.978846	U A </s>
-2.955545	G A </s>
-1.6820855	I A </s>
-2.7804198	M A </s>
-2.966996	S A </s>
-2.4757311	E A </s>
-2.378608	R A </s>
-2.2694535	D A </s>
-2.602511	V A </s>
-2.654236	L A </s>
-2.9051158	P A </s>
-2.6191995	C A </s>
-3.8914828	W A </s>
-2.9825127	B A </s>
-3.1402254	F A </s>
-3.5159452	X A </s>
-2.5955503	Q A </s>
-2.8164752	J A </s>
-1.69488	Z A </s>
-2.8484669	' A </s>
-5.8230796	<s> N </s>
-3.9165442	T N </s>
-1.4292716	H N </s>
-2.1010008	A N </s>
-2.253055	N N </s>
-6.159435	K N </s>
-3.7428036	| N </s>
-1.5672883	Y N </s>
-1.4180621	O N </s>
-2.2812722	U N </s>
-1.803797	G N </s>
-2.0142517	I N </s>
-1.6244159	M N </s>
-4.753492	S N </s>
-1.7917616	E N </s>
-1.662353	R N </s>
-3.8836594	D N </s>
-2.7661731	V N </s>
-1.9022024	L N </s>
-3.7504005	P N </s>
-1.1979569	W N </s>
-3.9984097	B N </s>
-3.4177628	F N </s>
-2.3129013	X N </s>
-2.1505623	J N </s>
-3.2274437	Z N </s>
-1.5537051	' N </s>
-4.7812395	<s> K </s>
-3.3562865	T K </s>
-2.5148299	H K </s>
-1.9685773	A K </s>
-1.4168652	N K </s>
-2.977228	K K </s>
-3.4825733	| K </s>
-2.269351	Y K </s>
-1.7661381	O K </s>
-2.1429217	U K </s>
-1.3134956	G K </s>
-2.9807224	I K </s>
-3.0019162	M K </s>
-1.6508236	S K </s>
-1.1773365	E K </s>
-1.1712217	R K </s>
-3.5444508	D K </s>
-1.3783987	L K </s>
-4.074835	P K </s>
-1.2393725	C K </s>
-1.5354642	W K </s>
-2.0284498	J K </s>
-2.0197093	Z K </s>
-2.7346935	' K </s>
-5.8657837	<s> Y </s>
-0.9926151	T Y </s>
-1.4611497	H Y </s>
-1.107587	A Y </s>
-1.4773986	N Y </s>
-0.94323206	K Y </s>
-3.3900125	| Y </s>
-2.8024611	Y Y </s>
-1.2543476	O Y </s>
-1.3718424	U Y </s>
-1.0850719	G Y </s>
-2.1204662	I Y </s>
-1.9029216	M Y </s>
-1.3060513	S Y </s>
-1.5729893	E Y </s>
-1.1948026	R Y </s>
-1.1088566	D Y </s>
-1.2604668	V Y </s>
-1.1027148	L Y </s>
-1.0108075	P Y </s>
-0.93892145	C Y </s>
-2.2852924	W Y </s>
-1.8966665	B Y </s>
-1.4379503	F Y </s>
-1.0117682	X Y </s>
-0.83932847	J Y </s>
-0.9611053	Z Y </s>
-2.3248544	' Y </s>
-5.815667	<s> O </s>
-2.683332	T O </s>
-3.3118002	H O </s>
-2.145532	A O </s>
-2.5809612	N O </s>
-2.0148997	K O </s>
-3.9876606	| O </s>
-3.7720919	Y O </s>
-2.0364358	O O </s>
-2.8568823	U O </s>
-1.7028446	G O </s>
-2.9175055	I O </s>
-3.3386178	M O </s>
-2.0166306	S O </s>
-2.554746	E O </s>
-2.9129033	R O </s>
-1.8511195	D O </s>
-2.9097877	V O </s>
-2.8562694	L O </s>
-3.687436	P O </s>
-3.00636	C O </s>
-2.302257	W O </s>
-3.4275777	B O </s>
-4.5353584	F O </s>
-3.0784714	X O </s>
-2.9220488	J O </s>
-1.9400005	Z O </s>
-2.5995243	' O </s>
-4.870902	<s> U </s>
-3.741046	T U </s>
-3.5321364	H U </s>
-2.495621	A U </s>
-3.1841898	N U </s>
-2.142424	K U </s>
-3.8909087	| U </s>
-1.8453768	Y U </s>
-1.9423035	O U </s>
-2.0028975	U U </s>
-3.7812223	G U </s>
-3.344921	I U </s>
-4.2018456	M U </s>
-4.1443644	S U </s>
-2.1493728	E U </s>
-3.424204	R U </s>
-3.52408	D U </s>
-2.9455376	V U </s>
-3.2396684	L U </s>
-4.361789	P U </s>
-4.2311354	C U </s>
-3.07392	W U </s>
-4.234571	B U </s>
-3.9751196	F U </s>
-4.6039557	X U </s>
-5.1709123	Q U </s>
-3.9270415	J U </s>
-2.4326305	Z U </s>
-3.1430247	' U </s>
-5.35912	<s> G </s>
-3.9840474	T G </s>
-2.3432386	H G </s>
-2.5522366	A G </s>
-1.3926228	N G </s>
-4.075628	K G </s>
-3.7432268	| G </s>
-3.7740114	Y G </s>
-1.734553	O G </s>
-2.8331487	U G </s>
-2.324483	G G </s>
-2.7881625	I G </s>
-2.948184	M G </s>
-4.193352	S G </s>
-2.2405007	E G </s>
-2.179975	R G </s>
-4.2281103	D G </s>
-2.5190897	V G </s>
-3.5942588	L G </s>
-2.902441	C G </s>
-1.6654077	W G </s>
-2.7102046	B G </s>
-3.0813458	F G </s>
-2.632985	' G </s>
-3.6019096	T I </s>
-4.027069	H I </s>
-3.623626	A I </s>
-3.0217655	N I </s>
-3.0127347	K I </s>
-3.040133	| I </s>
-3.5181177	Y I </s>
-3.2966633	O I </s>
-3.3498626	U I </s>
-3.6095004	G I </s>
-0.6772269	I I </s>
-3.6306508	M I </s>
-3.8393772	S I </s>
-3.6369896	E I </s>
-3.4265544	R I </s>
-3.5343645	D I </s>
-3.311928	V I </s>
-3.4217288	L I </s>
-3.1845038	P I </s>
-3.5188525	C I </s>
-4.8241596	W I </s>
-3.1595638	B I </s>
-4.2938294	F I </s>
-2.4774501	X I </s>
-2.376738	J I </s>
-2.3696454	Z I </s>
-2.9077022	' I </s>
-5.748482	<s> M </s>
-4.831968	T M </s>
-2.5903876	H M </s>
-1.8516793	A M </s>
-4.969634	N M </s>
-4.111204	K M </s>
-3.704886	| M </s>
-2.7779164	Y M </s>
-1.8532662	O M </s>
-1.8120167	U M </s>
-2.7937713	G M </s>
-1.1630589	I M </s>
-3.385047	M M </s>
-1.6184554	S M </s>
-1.3001587	E M </s>
-1.4894627	R M </s>
-5.3257246	D M </s>
-1.1741406	V M </s>
-1.7433716	L M </s>
-3.7117157	P M </s>
-2.3595092	C M </s>
-1.2167195	W M </s>
-4.639097	B M </s>
-3.4390836	F M </s>
-3.4618375	X M </s>
-2.7864106	Z M </s>
-2.8153813	' M </s>
-6.1364713	<s> S </s>
-1.1005226	T S </s>
-1.0171926	H S </s>
-2.3553526	A S </s>
-1.2797824	N S </s>
-1.0063637	K S </s>
-3.6933737	| S </s>
-1.2972515	Y S </s>
-2.6551318	O S </s>
-1.5824506	U S </s>
-0.9371216	G S </s>
-2.1086185	I S </s>
-1.326749	M S </s>
-1.3357444	S S </s>
-1.3058896	E S </s>
-1.1357434	R S </s>
-1.0031157	D S </s>
-1.3353024	V S </s>
-1.118415	L S </s>
-1.1339908	P S </s>
-0.8586418	C S </s>
-1.0481935	W S </s>
-1.6008428	B S </s>
-1.0103327	F S </s>
-2.1942406	X S </s>
-1.5199622	Q S </s>
-1.7367578	J S </s>
-2.9548886	Z S </s>
-1.9271914	' S </s>
-5.436072	<s> E </s>
-1.9561416	T E </s>
-3.1208117	H E </s>
-1.8027136	A E </s>
-1.5337008	N E </s>
-1.7421198	K E </s>
-3.4754	| E </s>
-1.9821709	Y E </s>
-1.6382825	O E </s>
-1.4442518	U E </s>
-1.484409	G E </s>
-1.922965	I E </s>
-1.3484433	M E </s>
-1.5865066	S E </s>
-1.9001852	E E </s>
-1.6868048	R E </s>
-1.8656325	D E </s>
-1.8879205	V E </s>
-1.525385	L E </s>
-2.0811396	P E </s>
-1.1454536	C E </s>
-3.007863	W E </s>
-2.2617888	B E </s>
-1.4907788	F E </s>
-2.2452931	X E </s>
-3.2094169	J E </s>
-1.5229684	Z E </s>
-2.901874	' E </s>
-5.338511	<s> R </s>
-4.4956136	T R </s>
-3.7678459	H R </s>
-1.9630504	A R </s>
-4.5808363	N R </s>
-3.4181542	K R </s>
-3.5502868	| R </s>
-2.1133027	Y R </s>
-1.9207356	O R </s>
-2.0713367	U R </s>
-4.7663774	G R </s>
-1.6949351	I R </s>
-3.4960277	M R </s>
-2.9090981	S R </s>
-1.4380425	E R </s>
-3.0089529	R R </s>
-4.2704334	D R </s>
-3.8292315	V R </s>
-5.24875	L R </s>
-5.505212	P R </s>
-4.562755	C R </s>
-4.2110496	W R </s>
-4.7136774	B R </s>
-4.4383993	F R </s>
-0.7733233	X R </s>
-1.2130897	Q R </s>
-1.13226	J R </s>
-3.522691	Z R </s>
-3.0724487	' R </s>
-5.5871425	<s> D </s>
-2.8332386	T D </s>
-3.0925179	H D </s>
-1.6943111	A D </s>
-1.7951114	N D </s>
-3.6621141	K D </s>
-3.5106537	| D </s>
-1.7403767	Y D </s>
-1.3359774	O D </s>
-1.8400863	U D </s>
-3.3441603	G D </s>
-1.5258085	I D </s>
-2.7221096	M D </s>
-2.923489	S D </s>
-1.2649257	E D </s>
-1.3426099	R D </s>
-2.6472025	D D </s>
-1.45473	V D </s>
-1.5334494	L D </s>
-2.0513084	P D </s>
-2.5654685	C D </s>
-1.2918442	W D </s>
-3.4944503	B D </s>
-2.548666	F D </s>
-2.306778	J D </s>
-1.9722317	Z D </s>
-1.9937577	' D </s>
-4.8467236	<s> V </s>
-3.3484151	T V </s>
-4.1118846	A V </s>
-5.6243725	N V </s>
-3.3480775	K V </s>
-2.9243639	| V </s>
-3.293945	O V </s>
-3.0294313	U V </s>
-3.0694396	G V </s>
-3.6588998	I V </s>
-3.1473644	M V </s>
-4.0270004	S V </s>
-2.8467672	E V </s>
-4.0674224	R V </s>
-4.7505918	D V </s>
-1.1911566	V V </s>
-4.3524265	L V </s>
-2.3847466	P V </s>
-4.548246	B V </s>
-0.8116512	X V </s>
-2.4985764	Q V </s>
-1.6641517	J V </s>
-5.581006	<s> L </s>
-4.452557	T L </s>
-2.9222934	H L </s>
-1.9208076	A L </s>
-4.5389266	N L </s>
-4.2413054	K L </s>
-3.594971	| L </s>
-2.4745834	Y L </s>
-2.090159	O L </s>
-1.9516854	U L </s>
-5.1860976	G L </s>
-2.0759237	I L </s>
-3.6422648	M L </s>
-4.6835017	S L </s>
-2.0519464	E L </s>
-1.7300717	R L </s>
-4.6916733	D L </s>
-2.2909772	V L </s>
-1.5920714	L L </s>
-4.9029365	P L </s>
-4.8073883	C L </s>
-1.7802804	W L </s>
-5.3127465	B L </s>
-4.95505	F L </s>
-2.0535111	X L </s>
-1.4534512	J L </s>
-3.0972738	Z L </s>
-3.36335	' L </s>
-5.54456	<s> P </s>
-3.509648	H P </s>
-2.100641	A P </s>
-3.7770011	N P </s>
-3.5927489	K P </s>
-3.6492782	| P </s>
-2.8929915	Y P </s>
-1.9828421	O P </s>
-1.5648535	U P </s>
-1.3931203	I P </s>
-2.0326712	M P </s>
-2.8245494	S P </s>
-1.7672023	E P </s>
-2.3137639	R P </s>
-1.434871	L P </s>
-3.5432742	P P </s>
-2.735408	W P </s>
-1.442807	B P </s>
-3.342693	F P </s>
-5.8195214	X P </s>
-3.1657474	Z P </s>
-3.3596616	' P </s>
-5.6758733	<s> C </s>
-3.3264863	T C </s>
-3.8296843	H C </s>
-3.151255	A C </s>
-3.974243	N C </s>
-3.6073987	| C </s>
-4.0128055	Y C </s>
-3.1766698	O C </s>
-3.9349828	U C </s>
-2.1750007	I C </s>
-3.34627	M C </s>
-3.6739326	S C </s>
-3.3764207	E C </s>
-3.423421	R C </s>
-3.976358	L C </s>
-4.8817663	C C </s>
-3.8273675	W C </s>
-3.3798563	B C </s>
-4.802883	X C </s>
-2.7245388	Z C </s>
-3.8411722	' C </s>
-6.3334904	<s> W </s>
-6.1958466	T W </s>
-1.7553581	A W </s>
-4.573973	K W </s>
-4.188234	| W </s>
-4.2815704	Y W </s>
-1.4387026	O W </s>
-1.4262923	U W </s>
-3.7040224	I W </s>
-3.8421657	M W </s>
-5.6197953	S W </s>
-1.6371197	E W </s>
-5.4115496	R W </s>
-4.0128865	D W </s>
-2.5832405	C W </s>
-2.4196637	W W </s>
-3.8193076	X W </s>
-6.107272	<s> B </s>
-4.4030256	T B </s>
-4.9215064	H B </s>
-2.8752413	A B </s>
-4.164838	N B </s>
-4.226946	K B </s>
-3.7604249	| B </s>
-4.0181975	Y B </s>
-1.909507	O B </s>
-2.1228979	U B </s>
-4.0488253	G B </s>
-2.6831274	I B </s>
-2.062757	M B </s>
-4.775895	S B </s>
-2.4149773	E B </s>
-2.1278028	R B </s>
-4.033068	D B </s>
-2.7788303	L B </s>
-2.7426465	C B </s>
-3.7134132	W B </s>
-2.5337749	B B </s>
-3.1816857	X B </s>
-1.8350339	J B </s>
-2.9061217	' B </s>
-5.7274246	<s> F </s>
-4.4841943	H F </s>
-2.7051563	A F </s>
-4.502747	N F </s>
-4.80012	K F </s>
-4.1089387	| F </s>
-3.451229	Y F </s>
-2.7098815	O F </s>
-2.8259888	U F </s>
-3.6489472	I F </s>
-4.6264896	M F </s>
-5.2654433	S F </s>
-1.9128678	E F </s>
-2.1582017	R F </s>
-5.061217	D F </s>
-1.2447468	V F </s>
-0.97983575	L F </s>
-2.1988082	P F </s>
-4.1958203	W F </s>
-1.5929165	F F </s>
-4.2317095	X F </s>
-1.4017953	' F </s>
-3.6026416	<s> X </s>
-1.0026734	T X </s>
-1.2184441	H X </s>
-1.4190648	A X </s>
-2.01119	N X </s>
-1.0800593	K X </s>
-1.3317146	| X </s>
-0.9806685	Y X </s>
-1.0983036	O X </s>
-1.2700082	U X </s>
-1.1501802	G X </s>
-1.5050318	I X </s>
-2.5786757	E X </s>
-1.3739654	R X </s>
-1.1992037	D X </s>
-1.7157077	L X </s>
-0.998336	P X </s>
-1.9833789	C X </s>
-1.272247	W X </s>
-2.9693265	X X </s>
-4.4792213	<s> Q </s>
-2.4812434	T Q </s>
-3.4910579	H Q </s>
-2.6859932	A Q </s>
-4.291129	N Q </s>
-1.8780246	K Q </s>
-2.8771987	| Q </s>
-2.5418	O Q </s>
-3.467442	U Q </s>
-3.2055826	I Q </s>
-2.7739232	M Q </s>
-3.9531212	S Q </s>
-3.4960513	E Q </s>
-4.214258	R Q </s>
-4.0212812	D Q </s>
-2.9235215	C Q </s>
-0.8587799	Q Q </s>
-2.5273323	' Q </s>
-5.2352114	<s> J </s>
-3.5370688	T J </s>
-2.9376662	A J </s>
-3.586183	N J </s>
-2.9448113	| J </s>
-3.0079596	O J </s>
-2.3687687	U J </s>
-2.3590908	G J </s>
-2.6979358	I J </s>
-2.3849764	M J </s>
-3.2923496	E J </s>
-3.743849	R J </s>
-3.0081313	D J </s>
-1.8567338	V J </s>
-2.2066054	L J </s>
-2.209544	W J </s>
-4.7191925	B J </s>
-2.0063403	J J </s>
-2.7819176	Z J </s>
-3.8730586	<s> Z </s>
-1.1664708	T Z </s>
-2.8011134	A Z </s>
-1.9556916	N Z </s>
-2.2952623	| Z </s>
-3.0139608	Y Z </s>
-2.0839903	O Z </s>
-2.0618768	U Z </s>
-2.3028598	I Z </s>
-3.3057272	M Z </s>
-1.9630123	S Z </s>
-1.5190399	E Z </s>
-1.8644485	R Z </s>
-2.2277749	D Z </s>
-2.0072494	L Z </s>
-1.9611574	C Z </s>
-2.8567781	W Z </s>
-2.2753587	B Z </s>
-2.2656448	F Z </s>
-2.460175	Z Z </s>
-2.7253962	' Z </s>
-5.1704793	T ' </s>
-4.2011814	H ' </s>
-4.9385595	A ' </s>
-4.8718033	N ' </s>
-4.3387384	K ' </s>
-4.7960653	Y ' </s>
-5.123146	O ' </s>
-5.407961	U ' </s>
-4.7259316	G ' </s>
-5.7817335	I ' </s>
-4.7427998	M ' </s>
-3.8596232	S ' </s>
-4.841628	E ' </s>
-4.800156	R ' </s>
-4.440602	D ' </s>
-4.467938	L ' </s>
-4.4520535	P ' </s>
-4.1670017	W ' </s>
-4.0913596	B ' </s>
-6.4097133	<s> T T
-5.1028666	T T T
-4.5101457	H T T
-1.3086851	A T T
-5.0068955	N T T
-3.8400264	K T T
-6.0534463	| T T
-2.4173994	Y T T
-1.4127603	O T T
-1.4647015	U T T
-5.2643123	G T T
-1.1520745	I T T
-5.261928	S T T
-0.86079943	E T T
-4.664193	R T T
-4.4025054	D T T
-2.2945743	V T T
-4.4834867	L T T
-5.852909	P T T
-5.7547264	C T T
-4.531973	W T T
-5.2532487	B T T
-3.5966465	F T T
-5.7930446	X T T
-2.1877182	J T T
-4.9642973	' T T
-6.300524	<s> H T
-4.9432774	T H T
-3.294722	H H T
-2.61697	A H T
-4.150476	N H T
-2.097356	K H T
-6.412674	| H T
-3.8230424	Y H T
-3.3920934	O H T
-2.4098547	U H T
-0.18037201	G H T
-2.8587873	I H T
-3.8217058	M H T
-3.046768	S H T
-3.3903742	E H T
-4.4179096	R H T
-4.439375	D H T
-3.5548265	L H T
-2.6578445	P H T
-2.634485	C H T
-6.179971	W H T
-3.0571737	B H T
-3.3777382	F H T
-5.0425324	X H T
-1.428137	Q H T
-2.894312	J H T
-3.3826442	Z H T
-2.982935	' H T
-1.0322593	<s> A T
-0.95247376	T A T
-0.43858564	H A T
-1.5546007	A A T
-0.54141533	N A T
-0.70738477	K A T
-1.2070799	| A T
-1.7825475	Y A T
-0.58301437	O A T
-1.0544417	U A T
-1.028977	G A T
-0.94385993	I A T
-1.1318133	M A T
-1.1294143	S A T
-0.8149513	E A T
-0.829816	R A T
-1.423801	D A T
-0.9241049	V A T
-0.9508579	L A T
-0.9935594	P A T
-1.0996617	C A T
-1.3538119	W A T
-1.0966562	B A T
-0.8407371	F A T
-1.3524799	X A T
-1.2779564	Q A T
-2.8492937	J A T
-0.65259904	Z A T
-1.8808612	' A T
-5.123479	<s> N T
-4.147171	T N T
-3.7282553	H N T
-1.2517992	A N T
-3.978586	N N T
-4.993555	K N T
-4.6092515	| N T
-1.1873505	Y N T
-1.4002618	O N T
-0.7406317	U N T
-2.3512866	G N T
-1.1557081	I N T
-3.7512052	M N T
-3.3355207	S N T
-0.5655832	E N T
-2.043426	R N T
-3.0686727	D N T
-2.1484907	V N T
-3.1843703	L N T
-3.7459767	P N T
-2.2447278	C N T
-3.2143896	W N T
-3.8674107	B N T
-3.4113617	F N T
-2.3044431	X N T
-2.2362285	J N T
-1.6535305	Z N T
-1.5230745	' N T
-4.3378315	<s> K T
-3.8427331	T K T
-3.096443	H K T
-3.6099472	A K T
-3.442916	N K T
-2.9042037	K K T
-4.821432	| K T
-3.661529	Y K T
-3.4535263	O K T
-2.3627183	U K T
-3.5937746	I K T
-2.857291	M K T
-4.2035108	S K T
-3.152664	E K T
-3.2996304	R K T
-3.5823243	L K T
-4.217472	P K T
-2.78191	C K T
-4.431526	W K T
-2.6786153	F K T
-1.6288157	X K T
-3.0836246	' K T
-0.79614836	T | T
-0.7426564	H | T
-1.2220489	A | T
-0.63666624	N | T
-0.8215182	K | T
-0.88264775	Y | T
-0.7775899	O | T
-1.0299201	U | T
-0.6869711	G | T
-1.1682045	I | T
-0.6629305	M | T
-0.9032542	S | T
-0.9680464	E | T
-0.8175588	R | T
-0.74222565	D | T
-0.95301366	V | T
-0.8291656	L | T
-0.7156236	P | T
-1.1334065	C | T
-0.7827889	W | T
-0.9406013	B | T
-0.50878584	F | T
-1.0013894	X | T
-1.0473456	Q | T
-1.3459729	J | T
-0.98101723	Z | T
-0.8348814	' | T
-5.670948	<s> Y T
-4.010863	T Y T
-1.9866483	H Y T
-2.6306467	A Y T
-0.9987327	N Y T
-3.0451872	K Y T
-4.524385	| Y T
-3.0649724	Y Y T
-3.1609592	O Y T
-2.1092534	U Y T
-2.9230466	G Y T
-3.249117	I Y T
-2.4545581	M Y T
-2.38289	S Y T
-3.1428597	E Y T
-1.5353916	R Y T
-3.4181623	D Y T
-3.1463585	V Y T
-2.9610655	L Y T
-2.0558066	P Y T
-2.0977101	C Y T
-2.1545868	W Y T
-2.8253484	B Y T
-2.9524143	F Y T
-2.94553	X Y T
-1.123787	Q Y T
-2.1978078	J Y T
-2.5347085	Z Y T
-1.6619643	' Y T
-1.6662564	<s> O T
-2.7555394	T O T
-1.687237	H O T
-1.6171672	A O T
-0.36629486	N O T
-1.6378527	K O T
-1.5484713	| O T
-3.1333408	Y O T
-1.2667006	O O T
-0.74088246	U O T
-0.90377253	G O T
-2.0934348	I O T
-1.0529864	M O T
-2.95708	S O T
-2.486805	E O T
-1.4376136	R O T
-2.1693661	D O T
-1.1170847	V O T
-1.4648494	L O T
-1.4862804	P O T
-1.9121416	C O T
-2.8869514	W O T
-1.0541265	B O T
-3.958455	F O T
-0.8659901	X O T
-2.1726887	Q O T
-2.4959702	J O T
-1.8529018	Z O T
-0.66029984	' O T
-1.8754715	<s> U T
-1.5366864	T U T
-1.2975539	H U T
-0.7233296	A U T
-0.6373683	N U T
-1.3340999	K U T
-1.6566457	| U T
-1.8030583	Y U T
-0.8609706	O U T
-2.3171346	U U T
-2.121919	G U T
-2.5446072	I U T
-1.4440124	M U T
-2.8642921	S U T
-0.8655734	E U T
-1.0118222	R U T
-1.0203713	D U T
-3.0411322	V U T
-0.86547744	L U T
-0.51324624	P U T
-0.9264111	C U T
-1.7826918	W U T
-0.12979941	B U T
-1.3867311	F U T
-3.3916059	X U T
-4.79049	Q U T
-2.2137036	J U T
-2.0131	Z U T
-1.7555075	' U T
-3.2911198	H G T
-3.4752154	A G T
-1.9176666	N G T
-3.9716096	K G T
-5.9322987	| G T
-3.3916652	Y G T
-3.1715522	O G T
-4.8243694	U G T
-4.763158	G G T
-3.6744792	I G T
-3.241714	M G T
-4.8271327	S G T
-3.8731632	E G T
-3.6276116	R G T
-5.0810103	D G T
-4.630684	L G T
-1.8059225	C G T
-3.2173562	W G T
-2.7065945	X G T
-0.5789501	<s> I T
-1.5977982	T I T
-1.7171854	H I T
-1.2641591	A I T
-1.0124433	N I T
-1.5289656	K I T
-0.72598577	| I T
-2.7635365	Y I T
-1.8964994	O I T
-0.545724	U I T
-1.5860398	G I T
-1.8960172	I I T
-1.156659	M I T
-0.943	S I T
-1.1214598	E I T
-1.0462965	R I T
-1.2905823	D I T
-1.294482	V I T
-0.81295574	L I T
-0.8795825	P I T
-0.8229154	C I T
-0.23570266	W I T
-0.5745195	B I T
-1.4039712	F I T
-1.3079312	X I T
-1.0718018	Q I T
-2.2654617	J I T
-2.2395751	Z I T
-1.3492252	' I T
-4.643802	<s> M T
-5.052431	T M T
-4.506714	H M T
-3.1141138	A M T
-4.8622937	N M T
-4.3970876	| M T
-4.3385825	Y M T
-3.0684233	O M T
-3.0535815	U M T
-4.746448	G M T
-4.6634326	I M T
-4.164119	M M T
-4.5071306	E M T
-2.204666	R M T
-2.3197627	V M T
-4.2635455	L M T
-4.121748	P M T
-3.5040934	C M T
-3.8164701	W M T
-4.5583944	B M T
-3.6193564	F M T
-5.358642	' M T
-1.2635497	<s> S T
-2.1438043	T S T
-1.0176027	H S T
-0.95564103	A S T
-0.7918447	N S T
-2.2079067	K S T
-0.86631894	| S T
-0.97243744	Y S T
-0.57996583	O S T
-0.6545387	U S T
-1.4110142	G S T
-0.89344704	I S T
-1.2440587	M S T
-3.7323804	S S T
-0.7983216	E S T
-0.83435154	R S T
-1.5033987	D S T
-1.9707803	V S T
-1.6067216	L S T
-1.6001015	P S T
-1.0937339	C S T
-2.0709481	W S T
-0.7765528	B S T
-1.8280653	F S T
-1.3037747	X S T
-0.5715444	J S T
-1.4859891	Z S T
-2.7168174	' S T
-1.9975682	<s> E T
-2.9982355	T E T
-2.4764504	H E T
-1.3456217	A E T
-1.746482	N E T
-1.3486011	K E T
-2.0127997	| E T
-0.76588815	Y E T
-0.90651894	O E T
-1.7292378	U E T
-0.8470898	G E T
-1.2319657	I E T
-1.3262045	M E T
-1.581199	S E T
-1.0596621	E E T
-1.4891739	R E T
-1.7484015	D E T
-2.571607	V E T
-1.2340784	L E T
-1.4835728	P E T
-2.4333723	C E T
-2.3511875	W E T
-1.2275566	B E T
-1.791115	F E T
-2.1781986	X E T
-0.93387747	Q E T
-1.9012475	J E T
-2.1220982	Z E T
-1.431764	' E T
-5.129932	<s> R T
-5.944463	T R T
-4.412207	H R T
-0.9129704	A R T
-4.3551235	N R T
-4.1912704	K R T
-4.9077244	| R T
-1.6145554	Y R T
-1.0246596	O R T
-1.3642411	U R T
-6.452186	G R T
-1.3435142	I R T
-4.0591245	M R T
-4.4480486	S R T
-1.6067044	E R T
-4.3179564	R R T
-6.0439425	D R T
-3.7531216	V R T
-5.2711306	L R T
-5.6584425	P R T
-5.367164	C R T
-3.9960406	W R T
-5.442677	B R T
-6.2152824	F R T
-2.208283	Q R T
-2.4508169	' R T
-4.491898	<s> D T
-3.4240758	T D T
-3.2799423	H D T
-3.0323539	A D T
-3.7180278	N D T
-3.6911633	K D T
-4.8126984	| D T
-3.1179762	Y D T
-3.2528927	O D T
-3.7316434	U D T
-4.518235	G D T
-3.0754092	I D T
-3.3560152	M D T
-4.5239687	S D T
-3.852512	E D T
-3.1471882	R D T
-5.3922815	D D T
-3.2568855	L D T
-3.3104682	P D T
-3.7466004	C D T
-4.089258	W D T
-3.8586342	B D T
-2.0200322	X D T
-4.5025454	' D T
-4.921728	<s> V T
-3.5236182	T V T
-1.778873	H V T
-5.31705	A V T
-5.402484	N V T
-5.424903	| V T
-4.717233	O V T
-4.386728	U V T
-5.958371	I V T
-3.854145	S V T
-5.4673066	E V T
-4.6795917	R V T
-4.0629897	D V T
-5.267537	L V T
-2.294763	P V T
-4.6052747	B V T
-3.471975	X V T
-5.602176	<s> L T
-6.458512	T L T
-3.2331285	H L T
-1.4386026	A L T
-4.8570876	N L T
-5.1358757	K L T
-5.4211926	| L T
-2.59812	Y L T
-1.9968176	O L T
-1.1650908	U L T
-6.051599	G L T
-1.7325141	I L T
-5.031854	M L T
-5.9495835	S L T
-1.4438792	E L T
-2.7467644	R L T
-5.8077693	D L T
-3.4285347	V L T
-3.73276	L L T
-5.649517	P L T
-6.198785	C L T
-2.8561351	W L T
-6.595012	B L T
-3.733502	X L T
-2.2492251	J L T
-2.8658845	' L T
-3.3336515	<s> P T
-3.6682162	T P T
-3.6521666	H P T
-1.0183419	A P T
-3.6148891	N P T
-3.8403196	| P T
-0.62773645	Y P T
-1.8785836	O P T
-1.4924423	U P T
-3.5381074	G P T
-1.169548	I P T
-0.9880359	M P T
-4.977792	S P T
-0.7002667	E P T
-2.4259953	R P T
-1.8102859	V P T
-1.5716244	L P T
-5.2966638	P P T
-2.2089477	C P T
-2.6701229	B P T
-2.5936499	' P T
-4.3987646	<s> C T
-5.779013	T C T
-3.3272002	H C T
-0.769735	A C T
-1.5351281	N C T
-3.7024953	K C T
-4.9364347	| C T
-2.5853608	Y C T
-0.8945377	O C T
-1.0104578	U C T
-2.4577785	G C T
-1.292018	I C T
-3.9714057	M C T
-5.45754	S C T
-0.4247834	E C T
-2.5470388	R C T
-4.0748773	D C T
-1.5207676	V C T
-2.8085568	L C T
-3.111358	P C T
-4.411774	C C T
-3.1284368	W C T
-2.838472	F C T
-5.7284474	X C T
-1.5019277	J C T
-3.1589503	' C T
-5.071457	T W T
-5.0226684	H W T
-2.4118347	A W T
-5.000096	N W T
-5.9825273	| W T
-4.5791564	Y W T
-2.5888026	O W T
-2.9812367	U W T
-6.090613	S W T
-2.4927013	E W T
-4.8792076	R W T
-4.4841747	D W T
-1.1179161	C W T
-3.451087	' W T
-6.240014	<s> B T
-5.148737	H B T
-3.520267	A B T
-4.95049	N B T
-5.825552	| B T
-1.3133924	O B T
-0.69966066	U B T
-3.789663	I B T
-3.9007173	M B T
-4.934101	S B T
-1.1826508	E B T
-4.762531	R B T
-4.8118625	L B T
-4.4031744	W B T
-4.741977	B B T
-4.053231	<s> F T
-4.815294	T F T
-3.9670644	H F T
-0.23037319	A F T
-4.0201387	N F T
-4.222717	K F T
-5.5629864	| F T
-3.1408849	Y F T
-1.748301	O F T
-1.9032016	U F T
-0.9888648	I F T
-4.400013	M F T
-5.3567405	S F T
-0.8622498	E F T
-3.7006893	R F T
-5.0375805	D F T
-2.4278107	L F T
-3.1398776	P F T
-2.7314034	C F T
-3.50472	W F T
-2.867672	B F T
-3.682935	F F T
-1.8311348	J F T
-3.0624678	' F T
-3.4570537	<s> X T
-1.2854679	H X T
-1.3633702	A X T
-3.7047174	N X T
-2.5236783	| X T
-2.9778273	Y X T
-2.4421306	O X T
-1.5388395	U X T
-1.3586193	G X T
-0.5193804	I X T
-2.0868638	M X T
-0.7072611	E X T
-2.9051194	C X T
-0.7835227	' X T
-5.958943	| Q T
-4.825831	O Q T
-3.5953655	U Q T
-5.1276197	I Q T
-4.812072	<s> J T
-3.0764694	H J T
-3.8178954	A J T
-5.0266056	N J T
-5.3491592	| J T
-3.0238938	Y J T
-3.3522637	O J T
-2.4855995	U J T
-2.765678	I J T
-4.6834836	E J T
-2.602626	R J T
-3.3944097	P J T
-1.5677633	W J T
-5.559882	B J T
-2.3218403	F J T
-3.9527607	<s> Z T
-2.7060144	T Z T
-2.4023752	A Z T
-3.3204603	N Z T
-2.2158504	K Z T
-4.174928	| Z T
-3.913341	Y Z T
-3.9806626	O Z T
-3.0460954	U Z T
-3.5375774	I Z T
-0.52919525	S Z T
-3.2974865	E Z T
-2.6892064	R Z T
-3.867096	L Z T
-2.1356466	C Z T
-4.2869153	Z Z T
-3.6103742	T ' T
-2.6199296	H ' T
-2.1576307	A ' T
-0.118294545	N ' T
-2.9385266	K ' T
-3.4905457	Y ' T
-1.8094563	O ' T
-3.1522427	U ' T
-2.9860227	G ' T
-3.5166683	I ' T
-2.3779798	M ' T
-1.84049	S ' T
-3.150755	E ' T
-2.862882	R ' T
-3.1610358	D ' T
-2.2976718	V ' T
-2.6804945	L ' T
-2.0455287	P ' T
-1.9204977	C ' T
-2.623526	W ' T
-2.320759	B ' T
-1.9105068	F ' T
-3.0203679	X ' T
-2.6881819	Q ' T
-2.0855725	J ' T
-2.8783183	Z ' T
-1.9500512	' ' T
-0.042782232	<s> T H
-2.707105	T T H
-2.3742168	H T H
-1.16801	A T H
-1.678544	N T H
-1.1729715	K T H
-0.17632464	| T H
-0.033315472	Y T H
-0.5045601	O T H
-1.1955903	U T H
-0.15370661	G T H
-0.5633665	I T H
-0.3241154	M T H
-2.8455243	S T H
-0.9161298	E T H
-0.8282095	R T H
-0.28361517	D T H
-0.53163195	V T H
-0.84860325	L T H
-1.6676552	P T H
-3.808562	C T H
-0.15137468	W T H
-3.1487126	B T H
-1.8470259	F T H
-1.6187575	X T H
-1.494501	J T H
-2.0016563	Z T H
-3.1293414	' T H
-5.923047	<s> H H
-4.113807	T H H
-1.7663523	H H H
-3.3766425	A H H
-4.3078704	N H H
-4.476712	K H H
-6.0723486	| H H
-4.1140356	O H H
-2.467967	U H H
-4.804988	G H H
-2.9834275	I H H
-4.2903595	S H H
-4.4833198	E H H
-5.1747503	R H H
-4.636129	D H H
-4.4413514	L H H
-5.814375	P H H
-4.0858984	C H H
-6.5317087	W H H
-1.8298807	<s> A H
-2.9398367	T A H
-3.5912178	H A H
-2.3161602	A A H
-2.3015032	N A H
-1.9859067	K A H
-2.939932	| A H
-2.1116273	Y A H
-2.4260714	O A H
-2.9480603	U A H
-3.2596724	G A H
-2.1662765	I A H
-2.6089065	M A H
-2.7802033	S A H
-3.4539187	E A H
-2.2415402	R A H
-2.3976383	D A H
-2.5134246	V A H
-2.6534002	L A H
-3.1805997	P A H
-3.4579518	C A H
-3.4674041	W A H
-2.4838843	B A H
-3.572033	F A H
-4.389496	X A H
-1.7388437	Q A H
-1.7046208	J A H
-2.1843615	Z A H
-2.6757157	' A H
-5.41133	<s> N H
-5.3335953	T N H
-3.1685061	H N H
-3.3141193	A N H
-3.2476118	N N H
-5.3976603	| N H
-1.9082558	Y N H
-3.8461487	O N H
-2.1520374	U N H
-3.2064576	G N H
-2.8261833	I N H
-4.634729	M N H
-3.0532215	E N H
-2.7227404	R N H
-3.7255273	V N H
-4.596786	L N H
-3.2539573	W N H
-4.160044	B N H
-3.700283	F N H
-1.3852152	Q N H
-1.3360596	J N H
-2.372947	' N H
-2.136122	<s> K H
-2.400022	T K H
-2.0754664	H K H
-3.079124	A K H
-3.0646424	N K H
-2.2768521	K K H
-2.3917482	| K H
-1.4657737	Y K H
-3.2973783	O K H
-2.151649	U K H
-1.8631562	G K H
-2.649999	I K H
-1.359421	M K H
-3.9864597	S K H
-2.3261447	E K H
-2.4420302	R K H
-3.1852326	D K H
-2.68037	V K H
-2.7241619	L K H
-3.5642626	P K H
-2.5992236	C K H
-2.5296907	W K H
-2.0533557	B K H
-2.5096524	F K H
-2.373991	J K H
-2.3002396	Z K H
-2.7243946	' K H
-1.1038151	T | H
-1.0232797	H | H
-1.3362616	A | H
-1.0976079	N | H
-1.1503252	K | H
-1.2160075	Y | H
-1.0468198	O | H
-1.0874636	U | H
-1.1410354	G | H
-0.88537216	I | H
-1.1474351	M | H
-1.2505689	S | H
-1.199028	E | H
-1.1192572	R | H
-1.0946509	D | H
-1.3150202	V | H
-1.2168717	L | H
-1.1712415	P | H
-1.4187334	C | H
-1.0832387	W | H
-1.1731504	B | H
-1.0591664	F | H
-1.1412189	X | H
-1.279732	Q | H
-1.1628095	J | H
-1.1306112	Z | H
-1.1296535	' | H
-4.9157977	<s> Y H
-4.8080873	T Y H
-4.438996	H Y H
-3.1783328	A Y H
-2.0494823	N Y H
-3.6923833	K Y H
-5.286194	| Y H
-3.082696	Y Y H
-2.2182388	O Y H
-3.3295412	U Y H
-4.6803927	G Y H
-3.489896	I Y H
-4.9060025	M Y H
-4.9130483	S Y H
-3.1276479	E Y H
-4.1187563	R Y H
-4.0241737	D Y H
-4.09788	V Y H
-3.8800805	L Y H
-3.0674007	P Y H
-4.480066	C Y H
-3.496779	W Y H
-3.531677	B Y H
-2.9248848	X Y H
-2.4807675	J Y H
-3.900683	Z Y H
-3.9569428	' Y H
-0.7283281	<s> O H
-4.7944508	T O H
-3.7803264	H O H
-1.2060937	A O H
-3.8535643	N O H
-1.8070332	K O H
-2.6695218	| O H
-4.174628	Y O H
-3.5331328	O O H
-3.690722	U O H
-4.281584	G O H
-5.0752697	I O H
-2.8273575	M O H
-3.522478	S O H
-3.5847352	E O H
-3.0774338	R O H
-4.0305867	D O H
-3.966958	V O H
-3.609413	L O H
-3.6289146	P O H
-2.9659405	C O H
-4.020936	W O H
-2.8360977	B O H
-4.276838	F O H
-3.6897967	X O H
-0.7558247	J O H
-2.8947725	Z O H
-3.5075207	' O H
-2.4956565	<s> U H
-3.60386	T U H
-3.0304573	H U H
-3.5778487	A U H
-3.943971	N U H
-1.8450801	K U H
-3.5142944	| U H
-0.8724767	Y U H
-4.7345967	O U H
-2.902899	U U H
-4.2224545	G U H
-3.9306848	I U H
-3.3974688	M U H
-3.4579396	S U H
-3.333654	E U H
-3.4994445	R U H
-3.8907964	D U H
-3.0985904	V U H
-3.9785712	L U H
-3.9704251	P U H
-4.320207	C U H
-3.4129813	W U H
-4.056783	B U H
-4.1116257	F U H
-2.962227	Q U H
-3.8487632	J U H
-2.7789361	Z U H
-2.5875106	' U H
-2.481327	<s> G H
-3.3808289	T G H
-2.716549	H G H
-2.4550085	A G H
-2.8285317	N G H
-4.0432014	K G H
-2.3484254	| G H
-1.7364187	Y G H
-2.522439	O G H
-0.0675657	U G H
-3.757927	G G H
-0.15317649	I G H
-1.5977955	M G H
-3.1074984	S G H
-2.7136815	E G H
-1.9088842	R G H
-3.5345905	D G H
-2.6403217	V G H
-2.4473922	L G H
-3.2832766	P G H
-2.7523198	C G H
-2.2552235	W G H
-2.1727755	B G H
-0.1956289	F G H
-2.3478658	X G H
-0.54191375	J G H
-1.937546	Z G H
-2.0907454	' G H
-5.0854	<s> I H
-4.5465927	T I H
-4.555123	H I H
-4.3474007	A I H
-2.8618672	N I H
-4.4546194	K I H
-4.925349	| I H
-4.3010955	Y I H
-5.08036	O I H
-5.215431	U I H
-4.401857	G I H
-3.0926652	I I H
-3.5305276	M I H
-4.3046193	S I H
-4.031144	E I H
-4.197373	R I H
-3.776506	D I H
-4.346983	V I H
-3.3236377	L I H
-4.6960816	P I H
-4.8792195	C I H
-5.2497835	W I H
-3.551144	B I H
-5.3486896	F I H
-5.3356204	X I H
-1.9854591	Q I H
-3.0078878	J I H
-4.188723	Z I H
-2.5061352	' I H
-4.263293	<s> M H
-5.5451202	T M H
-4.6888103	H M H
-3.402923	A M H
-5.196129	N M H
-4.7762117	| M H
-4.609272	Y M H
-4.5699525	O M H
-3.572453	U M H
-4.942399	G M H
-4.6930227	I M H
-4.649973	M M H
-5.843576	S M H
-3.9757197	E M H
-2.7301364	R M H
-3.10387	L M H
-0.35644123	<s> S H
-2.7078996	T S H
-2.1708367	H S H
-1.6237688	A S H
-1.9159936	N S H
-1.8682516	K S H
-0.80383945	| S H
-2.232266	Y S H
-2.4310064	O S H
-1.4043798	U S H
-2.4752326	G S H
-1.1605625	I S H
-2.5174246	M S H
-3.1784344	S S H
-2.0380282	E S H
-1.769419	R S H
-1.5725329	D S H
-2.4505088	V S H
-2.2566237	L S H
-2.1343958	P S H
-3.0438788	C S H
-1.976929	W S H
-3.0760114	B S H
-2.1227283	F S H
-1.3195065	X S H
-1.7399746	J S H
-2.1407323	Z S H
-3.2979968	' S H
-2.215463	<s> E H
-3.6967657	T E H
-4.739573	H E H
-2.8675647	A E H
-3.5090723	N E H
-3.5276873	K E H
-2.7389562	| E H
-3.1514359	Y E H
-2.8196871	O E H
-3.346671	U E H
-3.5274057	G E H
-4.005842	I E H
-2.6320822	M E H
-2.6757689	S E H
-3.6661549	E E H
-2.4917312	R E H
-3.8180375	D E H
-2.9078064	V E H
-3.431862	L E H
-4.376803	P E H
-4.3557763	C E H
-3.896894	W E H
-1.645891	B E H
-4.0929055	F E H
-4.376426	X E H
-2.1054995	J E H
-3.0751827	Z E H
-3.6917086	' E H
-2.1396286	<s> R H
-5.6917477	T R H
-3.7603874	H R H
-3.8150775	A R H
-2.8929563	N R H
-3.6374636	K R H
-2.4426007	| R H
-3.6843905	Y R H
-3.1334703	O R H
-2.8029158	U R H
-5.551531	G R H
-3.914372	I R H
-4.4574637	M R H
-4.2045	S R H
-2.165043	E R H
-2.876306	R R H
-6.1835155	D R H
-5.8164363	P R H
-5.8636003	C R H
-4.687885	W R H
-4.9629445	B R H
-6.231406	F R H
-3.290949	' R H
-3.6395109	<s> D H
-3.787755	T D H
-3.8218997	H D H
-2.916838	A D H
-3.5699768	N D H
-2.0730715	K D H
-3.6736715	| D H
-3.6220024	Y D H
-2.8470516	O D H
-3.070473	U D H
-3.6542926	G D H
-3.8843312	I D H
-2.5726926	M D H
-3.0410547	S D H
-4.251577	E D H
-3.3023748	R D H
-2.1772523	D D H
-2.6905184	V D H
-2.637398	L D H
-3.567751	P D H
-3.1922443	C D H
-3.5179865	W D H
-3.6652803	B D H
-2.2024	F D H
-4.536422	' D H
-3.0895162	<s> V H
-5.861627	A V H
-5.9479585	N V H
-4.2007465	| V H
-3.5653472	Y V H
-6.4581847	O V H
-6.6618752	I V H
-6.332055	E V H
-3.782472	V V H
-4.2852407	<s> L H
-5.3255887	T L H
-2.877012	H L H
-3.446014	A L H
-5.449711	K L H
-4.249896	| L H
-3.8390741	Y L H
-3.281137	O L H
-3.9650066	U L H
-6.2101507	G L H
-3.114028	I L H
-5.6410165	S L H
-3.389442	E L H
-2.8958979	R L H
-5.860146	D L H
-4.20502	L L H
-6.594137	P L H
-4.5194197	W L H
-6.65416	B L H
-4.2447324	F L H
-5.39281	' L H
-1.3564804	<s> P H
-1.4508414	T P H
-2.1756814	H P H
-1.5371778	A P H
-2.246778	N P H
-2.6071575	K P H
-1.7194484	| P H
-1.1766218	Y P H
-1.3481181	O P H
-2.3483808	U P H
-3.348651	G P H
-2.008723	I P H
-1.4909836	M P H
-1.8219383	S P H
-1.4071298	E P H
-1.5144014	R P H
-2.1796994	D P H
-1.895262	V P H
-0.81480426	L P H
-2.8834472	P P H
-0.08101188	C P H
-2.998918	W P H
-1.7921729	B P H
-3.2999089	F P H
-4.046215	X P H
-0.95947254	Q P H
-3.0165913	J P H
-1.7075796	' P H
-0.92161274	<s> C H
-0.017964242	T C H
-1.1189169	H C H
-0.81423837	A C H
-1.0845364	N C H
-0.8403152	K C H
-0.88829345	| C H
-0.49558717	Y C H
-1.6181201	O C H
-0.23927511	U C H
-0.8677445	G C H
-0.4947142	I C H
-1.101779	M C H
-0.8747832	S C H
-1.4858965	E C H
-0.41730988	R C H
-0.52317697	D C H
-0.7217497	V C H
-0.93133366	L C H
-0.648273	P C H
-2.2406707	C C H
-1.6118869	W C H
-1.0295297	B C H
-0.34760666	F C H
-1.2456363	X C H
-0.9990456	Q C H
-1.7874788	J C H
-0.89256513	Z C H
-2.4028	' C H
-0.32545763	<s> W H
-3.2241719	T W H
-2.2438447	H W H
-2.1954346	A W H
-0.69421136	N W H
-1.9862334	K W H
-0.6228584	| W H
-0.21458653	Y W H
-2.8085763	O W H
-2.0248284	U W H
-2.4963918	G W H
-2.552123	I W H
-2.2224116	M W H
-4.3619385	S W H
-1.2804855	E W H
-1.3102548	R W H
-3.7867806	D W H
-1.3451014	V W H
-3.3439603	L W H
-2.9280164	P W H
-1.4287174	C W H
-1.896089	W W H
-2.757702	B W H
-1.1399099	F W H
-3.2790058	X W H
-1.0604322	Q W H
-1.4276695	J W H
-3.2299652	Z W H
-1.4799845	' W H
-3.9263687	<s> B H
-4.5473084	T B H
-4.012352	H B H
-2.7892728	A B H
-4.1253686	N B H
-3.9795473	K B H
-3.855518	| B H
-4.7345195	Y B H
-3.4874113	O B H
-3.148617	U B H
-4.0713773	G B H
-3.8004744	I B H
-3.9829843	M B H
-5.260884	S B H
-3.293289	E B H
-3.45757	R B H
-3.405789	D B H
-3.9190488	L B H
-3.6150537	W B H
-4.440669	B B H
-3.1469495	F B H
-3.6163836	' B H
-5.046315	<s> F H
-5.359943	T F H
-4.896227	H F H
-5.147475	A F H
-5.3232536	N F H
-5.4462175	| F H
-4.3271146	Y F H
-6.5825124	O F H
-4.1769624	U F H
-3.9487202	G F H
-5.9921894	I F H
-5.4055614	S F H
-5.232133	E F H
-4.9099383	R F H
-5.085731	D F H
-3.4239373	L F H
-3.2649093	P F H
-3.1824274	B F H
-3.3093703	F F H
-2.6946096	' F H
-3.2200406	<s> X H
-2.9999158	A X H
-3.7560906	N X H
-3.7255473	| X H
-2.4312963	O X H
-1.9363108	U X H
-3.5437071	I X H
-1.5510358	E X H
-3.2731967	R X H
-5.4038925	N Q H
-6.185172	| Q H
-3.7548504	U Q H
-5.057255	I Q H
-3.5798793	R Q H
-5.1289725	C Q H
-3.9357917	<s> J H
-3.5662541	T J H
-2.9099493	H J H
-4.1684275	A J H
-4.2657137	N J H
-3.6752646	| J H
-3.009457	Y J H
-3.3321664	O J H
-3.2942286	U J H
-2.3944318	G J H
-3.697766	I J H
-2.550924	M J H
-3.476512	E J H
-4.0251837	D J H
-2.3836179	V J H
-2.9138608	L J H
-1.9810942	<s> Z H
-1.8427658	T Z H
-2.5887246	H Z H
-3.2219439	A Z H
-2.9257793	N Z H
-2.0151198	K Z H
-2.4069016	| Z H
-2.702258	Y Z H
-2.0912957	O Z H
-2.4642005	U Z H
-3.530889	I Z H
-3.3055553	M Z H
-3.1348891	S Z H
-2.417185	E Z H
-1.926588	R Z H
-1.8474592	D Z H
-2.3091776	L Z H
-2.6586807	C Z H
-2.2660704	W Z H
-3.8454473	Z Z H
-2.0064535	' Z H
-3.8622801	T ' H
-3.4421797	H ' H
-3.2779303	A ' H
-4.8445745	N ' H
-3.271832	K ' H
-4.2454643	Y ' H
-1.765006	O ' H
-4.5789633	U ' H
-4.0509057	G ' H
-5.091519	I ' H
-2.806368	M ' H
-3.1955132	S ' H
-4.581401	E ' H
-4.3958898	R ' H
-1.8198905	D ' H
-3.9999413	V ' H
-2.109572	L ' H
-2.5141907	P ' H
-2.5200477	C ' H
-4.1306014	W ' H
-2.9553614	B ' H
-3.8953915	F ' H
-3.7478573	X ' H
-2.5377471	J ' H
-3.0809221	Z ' H
-2.0385385	<s> T A
-1.3317984	T T A
-3.2816226	H T A
-2.4119773	A T A
-1.3570557	N T A
-0.71389925	K T A
-1.6679716	| T A
-2.6407595	Y T A
-2.102468	O T A
-2.1322348	U T A
-2.2675974	G T A
-1.566488	I T A
-2.2321084	M T A
-0.88070565	S T A
-1.6073116	E T A
-0.96282744	R T A
-1.9147055	D T A
-1.5615921	V T A
-1.4397653	L T A
-0.8633199	P T A
-1.5587538	C T A
-2.1543095	W T A
-0.72746295	B T A
-2.7065985	F T A
-2.3844876	X T A
-0.9159745	Q T A
-0.73771113	J T A
-1.128424	Z T A
-3.5012887	' T A
-1.1319174	<s> H A
-0.954585	T H A
-1.1485121	H H A
-0.9135026	A H A
-0.26804012	N H A
-0.311162	K H A
-0.53599286	| H A
-1.0893496	Y H A
-1.4156642	O H A
-0.6329974	U H A
-2.1909406	G H A
-0.8578467	I H A
-0.92411053	M H A
-0.9428999	S H A
-0.96463555	E H A
-0.15915194	R H A
-0.6749838	D H A
-0.61709285	V H A
-0.5574564	L H A
-0.8948959	P H A
-0.8389786	C H A
-0.8146351	W H A
-0.5607758	B H A
-0.20808755	F H A
-0.32663608	X H A
-0.26857862	Q H A
-0.2709751	J H A
-0.8479607	Z H A
-0.36225224	' H A
-3.5783663	<s> A A
-3.847427	T A A
-4.036057	H A A
-2.0407016	A A A
-3.097471	N A A
-2.5948718	K A A
-4.1266026	| A A
-3.102618	Y A A
-5.3838735	O A A
-4.179406	U A A
-3.2757921	G A A
-3.9668703	I A A
-3.8887343	M A A
-2.9600487	S A A
-5.842313	E A A
-3.3912728	R A A
-3.7573898	D A A
-3.0441022	V A A
-3.4417589	L A A
-3.9353557	P A A
-4.0795584	C A A
-4.1051993	W A A
-2.847628	B A A
-4.2255945	F A A
-2.389483	Q A A
-3.4024222	J A A
-1.7526116	Z A A
-4.009923	' A A
-1.2570925	<s> N A
-1.73318	T N A
-1.8433251	H N A
-2.1821659	A N A
-1.1975206	N N A
-2.1097846	K N A
-1.044054	| N A
-0.99742264	Y N A
-1.6975081	O N A
-1.6425159	U N A
-0.76583296	G N A
-1.7982646	I N A
-1.0101954	M N A
-0.7973838	S N A
-1.9893138	E N A
-1.2026707	R N A
-1.7352886	D N A
-0.07979609	V N A
-1.9104643	L N A
-2.4609709	P N A
-1.1187185	C N A
-3.7980409	W N A
-1.5147539	B N A
-1.5144109	F N A
-1.0118093	X N A
-0.8707497	Q N A
-0.8359463	J N A
-0.714816	Z N A
-1.6794385	' N A
-0.7033248	<s> K A
-0.66035914	T K A
-0.45236534	H K A
-2.1113498	A K A
-2.112605	N K A
-0.6999991	K K A
-1.5246098	| K A
-1.6795115	Y K A
-2.7563727	O K A
-1.5563418	U K A
-1.3868761	G K A
-2.2126245	I K A
-1.0467771	M K A
-1.7067964	S K A
-2.1020021	E K A
-1.5079473	R K A
-1.4938378	D K A
-0.17421591	V K A
-1.997174	L K A
-1.9206243	P K A
-2.081179	C K A
-2.8176074	W K A
-0.80891466	B K A
-0.71505636	F K A
-1.0669916	X K A
-0.71546036	Q K A
-0.85744417	J K A
-0.6473229	Z K A
-1.0899289	' K A
-0.9686183	T | A
-0.791041	H | A
-1.6911707	A | A
-0.87103426	N | A
-0.7851938	K | A
-0.9081999	Y | A
-1.1556126	O | A
-0.8837702	U | A
-0.8686616	G | A
-1.0466379	I | A
-0.8000864	M | A
-0.8258198	S | A
-1.0322607	E | A
-0.9135691	R | A
-0.9512147	D | A
-0.9574947	V | A
-0.97014874	L | A
-0.745662	P | A
-0.8933393	C | A
-0.9614003	W | A
-0.7963491	B | A
-0.99454415	F | A
-0.93905705	X | A
-0.8946805	Q | A
-1.0486863	J | A
-0.83244294	Z | A
-0.8997313	' | A
-2.4465034	<s> Y A
-2.5534322	T Y A
-1.9787544	H Y A
-2.5664988	A Y A
-2.4602833	N Y A
-1.9293199	K Y A
-1.7629914	| Y A
-0.40769002	Y Y A
-0.88164353	O Y A
-2.0625503	U Y A
-2.1840928	G Y A
-0.25477514	I Y A
-3.2597673	M Y A
-2.6119227	S Y A
-2.5441868	E Y A
-2.6620157	R Y A
-2.6369271	D Y A
-2.6922138	V Y A
-3.167405	L Y A
-2.7710402	P Y A
-2.769027	C Y A
-1.4230626	W Y A
-3.336158	B Y A
-2.3734884	F Y A
-2.4649196	X Y A
-1.123787	Q Y A
-1.2748721	J Y A
-2.1586406	Z Y A
-1.6164412	' Y A
-3.1117735	<s> O A
-3.2121396	T O A
-2.6451063	H O A
-2.9305625	A O A
-3.1713686	N O A
-2.3949082	K O A
-2.731818	| O A
-4.475011	Y O A
-4.174924	O O A
-3.4154625	U O A
-2.1665328	G O A
-4.296223	I O A
-2.5353394	M O A
-2.5516958	S O A
-4.2947087	E O A
-1.3751302	R O A
-3.2890828	D O A
-4.334145	V O A
-1.7956986	L O A
-3.1902747	P O A
-1.7567157	C O A
-4.2908673	W O A
-1.1465694	B O A
-2.8290272	F O A
-4.3943486	X O A
-1.8009099	J O A
-2.310621	Z O A
-2.9235942	' O A
-3.5504599	<s> U A
-1.1019461	T U A
-2.4190207	H U A
-3.6623757	A U A
-1.1742157	N U A
-1.9397374	K U A
-4.3487844	| U A
-1.9992008	Y U A
-3.5654638	O U A
-1.9932746	U U A
-0.87441045	G U A
-3.4709744	I U A
-3.5056505	M U A
-1.412374	S U A
-3.0361078	E U A
-2.2372	R U A
-1.1316577	D U A
-3.3509834	V U A
-1.7904925	L U A
-3.1896005	P U A
-2.8119287	C U A
-4.1799173	W U A
-4.3432407	B U A
-4.2651324	F U A
-1.2635641	X U A
-0.6516354	Q U A
-2.126644	J U A
-2.4680984	Z U A
-2.0859962	' U A
-1.1500697	<s> G A
-0.46169978	T G A
-0.5524145	H G A
-0.5723721	A G A
-2.2270918	N G A
-1.5693237	K G A
-0.9772831	| G A
-0.973937	Y G A
-1.4113166	O G A
-2.0167522	U G A
-1.1558859	G G A
-1.5705372	I G A
-0.31235138	M G A
-1.5075626	S G A
-0.5116795	E G A
-1.0278293	R G A
-1.884567	D G A
-1.6938016	V G A
-0.56941426	L G A
-0.42560118	P G A
-1.8543464	C G A
-0.37891087	W G A
-1.1261191	B G A
-0.5053816	F G A
-1.3646634	X G A
-1.349587	J G A
-1.4496766	Z G A
-0.89204997	' G A
-3.891119	<s> I A
-1.7289186	T I A
-2.7756429	H I A
-3.2172966	A I A
-1.4579171	N I A
-2.7718782	K I A
-3.9479797	| I A
-3.7184632	Y I A
-3.1464918	O I A
-2.9166555	U I A
-1.6517618	G I A
-1.3405986	I I A
-2.3127325	M I A
-1.7274679	S I A
-2.9291604	E I A
-1.3771406	R I A
-1.2389505	D I A
-1.7343864	V I A
-1.4104753	L I A
-1.8517319	P I A
-0.8305196	C I A
-4.6936164	W I A
-1.7276845	B I A
-2.1653056	F I A
-2.4330883	X I A
-1.8625455	Q I A
-2.5090823	J I A
-1.6797898	Z I A
-2.1438196	' I A
-0.6157345	<s> M A
-0.65882134	T M A
-0.5517937	H M A
-1.4549327	A M A
-0.9148396	N M A
-0.24184808	K M A
-0.55476975	| M A
-0.9269412	Y M A
-1.2914653	O M A
-0.9598111	U M A
-0.6892295	G M A
-1.2671776	I M A
-0.7651617	M M A
-0.48746568	S M A
-0.98071903	E M A
-0.858252	R M A
-1.0573686	D M A
-1.2290045	V M A
-1.2117851	L M A
-0.7340779	P M A
-0.7295864	C M A
-0.26049668	W M A
-0.7271459	B M A
-0.085089915	F M A
-0.25916973	X M A
-0.43187964	Q M A
-0.44794524	J M A
-0.08659816	Z M A
-1.9772642	' M A
-1.0291053	<s> S A
-2.9805028	T S A
-1.7609439	H S A
-2.1550202	A S A
-1.8404473	N S A
-2.7916653	K S A
-0.89369345	| S A
-2.6864533	Y S A
-1.9942685	O S A
-1.5808517	U S A
-3.6759245	G S A
-1.9589884	I S A
-2.8434603	M S A
-1.3097001	S S A
-2.5676198	E S A
-1.7091254	R S A
-2.898813	D S A
-2.6686316	V S A
-2.3180246	L S A
-1.8393066	P S A
-2.4706962	C S A
-3.7166495	W S A
-2.6617475	B S A
-2.1231947	F S A
-2.1379988	X S A
-0.26254267	Q S A
-0.63033026	J S A
-1.2698785	Z S A
-4.100546	' S A
-1.0576181	<s> E A
-1.5587846	T E A
-1.5403454	H E A
-1.5601926	A E A
-1.4425659	N E A
-3.0427551	K E A
-0.9627734	| E A
-0.7308973	Y E A
-3.2520468	O E A
-2.2936642	U E A
-2.1072798	G E A
-4.721664	I E A
-1.3886975	M E A
-1.5315871	S E A
-2.4095528	E E A
-0.9533357	R E A
-1.0944691	D E A
-2.643188	V E A
-0.9827267	L E A
-0.89735603	P E A
-1.8212032	C E A
-1.3843293	W E A
-1.2482709	B E A
-1.1329229	F E A
-3.5355332	X E A
-1.8328981	Q E A
-1.0688881	J E A
-1.5869342	Z E A
-1.929213	' E A
-0.8405805	<s> R A
-0.5423653	T R A
-1.5041543	H R A
-1.504514	A R A
-1.0719706	N R A
-0.480363	K R A
-0.9351145	| R A
-0.6028646	Y R A
-1.7102511	O R A
-1.4028558	U R A
-0.5385797	G R A
-1.5671883	I R A
-0.09363741	M R A
-0.4321936	S R A
-1.5622007	E R A
-1.0382047	R R A
-0.7570968	D R A
-0.8115239	V R A
-2.4076333	L R A
-1.1911898	P R A
-0.90150774	C R A
-1.0797938	W R A
-0.7869574	B R A
-0.98105747	F R A
-1.6638844	X R A
-1.7258401	Q R A
-1.4680715	J R A
-0.13038574	Z R A
-1.8475442	' R A
-1.0340682	<s> D A
-1.4734455	T D A
-0.67370933	H D A
-1.7643988	A D A
-2.004925	N D A
-0.2661007	K D A
-0.87720907	| D A
-1.080334	Y D A
-1.907268	O D A
-1.7099252	U D A
-0.8537761	G D A
-1.7837722	I D A
-0.7086659	M D A
-0.3636172	S D A
-2.7495134	E D A
-1.6736131	R D A
-1.9189683	D D A
-0.9141884	V D A
-2.464817	L D A
-0.6251176	P D A
-3.0935628	C D A
-2.3890138	W D A
-1.7262142	B D A
-0.59002984	F D A
-0.4643917	X D A
-0.022995917	Q D A
-0.1044187	J D A
-0.6630411	Z D A
-2.6830947	' D A
-0.7377024	<s> V A
-0.8568841	T V A
-0.75175333	H V A
-1.4918625	A V A
-0.9933464	N V A
-0.68422	K V A
-0.7669507	| V A
-1.0762377	Y V A
-1.8144522	O V A
-0.9896682	U V A
-0.2605229	G V A
-1.2140532	I V A
-1.1099977	M V A
-0.7334408	S V A
-1.6118942	E V A
-0.6603152	R V A
-0.33104733	D V A
-0.9260485	V V A
-1.2777151	L V A
-0.21412393	P V A
-1.4757305	C V A
-1.3283293	W V A
-3.2830338	B V A
-1.1903496	F V A
-2.5075765	X V A
-0.93211293	Q V A
-0.2558913	J V A
-1.7330554	Z V A
-3.4428658	' V A
-0.7352929	<s> L A
-1.8051262	T L A
-1.2113036	H L A
-1.7714404	A L A
-1.7382554	N L A
-1.3310535	K L A
-0.6729442	| L A
-1.1872545	Y L A
-1.5684055	O L A
-1.1917949	U L A
-0.49889225	G L A
-1.8002687	I L A
-1.7989436	M L A
-0.68951154	S L A
-1.5355173	E L A
-1.5209908	R L A
-1.6522492	D L A
-0.5122593	V L A
-1.4871631	L L A
-0.42020234	P L A
-0.6020534	C L A
-1.7182943	W L A
-0.99925685	B L A
-0.7089905	F L A
-1.9015067	X L A
-1.1531073	J L A
-2.2131543	Z L A
-2.1452303	' L A
-0.82103586	<s> P A
-0.87844646	T P A
-1.0353229	H P A
-1.2563876	A P A
-0.90828526	N P A
-0.93852836	K P A
-0.6926549	| P A
-2.1308053	Y P A
-2.0632672	O P A
-2.0532544	U P A
-1.0808898	G P A
-1.1964793	I P A
-0.744304	M P A
-0.97086143	S P A
-1.0104747	E P A
-1.571501	R P A
-0.38034785	D P A
-1.4474936	V P A
-1.6144246	L P A
-1.4081402	P P A
-1.6402462	C P A
-1.1129221	W P A
-1.7081342	B P A
-1.8805146	F P A
-1.6679289	X P A
-0.9558523	Q P A
-2.36868	J P A
-0.22596394	Z P A
-1.4052442	' P A
-0.6437997	<s> C A
-1.9827164	T C A
-1.1723613	H C A
-2.1103034	A C A
-1.9913727	N C A
-0.32698852	K C A
-0.6294319	| C A
-1.2942139	Y C A
-1.359254	O C A
-1.588416	U C A
-0.55835754	G C A
-0.9196443	I C A
-2.0984147	M C A
-0.7359906	S C A
-1.0069311	E C A
-1.5395058	R C A
-0.69644505	D C A
-1.5135739	V C A
-1.0006638	L C A
-1.4942377	P C A
-0.8882785	C C A
-0.6826929	W C A
-1.1257416	B C A
-0.54934525	F C A
-2.2589269	X C A
-2.0869899	J C A
-0.60930073	Z C A
-1.7537442	' C A
-1.3298067	<s> W A
-1.4170674	T W A
-0.21996835	H W A
-0.45190167	A W A
-0.43760574	N W A
-0.14528726	K W A
-0.5847528	| W A
-0.50140953	Y W A
-1.4557879	O W A
-0.4764642	U W A
-0.5296046	G W A
-0.5309976	I W A
-0.9028791	M W A
-0.93421537	S W A
-1.3457474	E W A
-0.14645189	R W A
-0.43903756	D W A
-1.0987717	V W A
-0.020903049	L W A
-0.097705014	P W A
-0.90478975	C W A
-0.8536112	W W A
-0.4008289	B W A
-0.074566916	F W A
-2.2855318	X W A
-0.40742633	Q W A
-0.09731321	J W A
-0.65118754	Z W A
-0.66366476	' W A
-1.5792253	<s> B A
-0.6601899	T B A
-1.5929236	H B A
-1.7232641	A B A
-1.2117991	N B A
-0.9234602	K B A
-1.0738264	| B A
-1.9084575	Y B A
-0.9517235	O B A
-1.9207739	U B A
-1.3904705	G B A
-1.6520704	I B A
-1.2079438	M B A
-0.18153948	S B A
-0.96434176	E B A
-0.73887056	R B A
-0.6687056	D B A
-1.8612852	V B A
-0.9523973	L B A
-1.7783769	P B A
-1.1335146	C B A
-0.7217259	W B A
-1.2284915	B B A
-0.58235914	F B A
-2.09895	X B A
-0.114474185	Q B A
-1.3044935	J B A
-1.1725814	Z B A
-1.1083324	' B A
-1.014066	<s> F A
-1.3572142	T F A
-1.4054115	H F A
-2.0670686	A F A
-1.0886221	N F A
-0.15769196	K F A
-0.8085139	| F A
-0.98348117	Y F A
-2.958544	O F A
-1.3887511	U F A
-2.1290617	G F A
-2.898515	I F A
-2.9741278	M F A
-0.5958885	S F A
-1.8956953	E F A
-1.0538441	R F A
-0.5427162	D F A
-0.86788905	V F A
-2.1518774	L F A
-0.95640695	P F A
-0.08353947	C F A
-2.1357079	W F A
-1.8419945	B F A
-1.3235517	F F A
-2.4702024	X F A
-1.0059001	Q F A
-2.0675817	Z F A
-0.67874914	' F A
-1.2935886	<s> X A
-0.5046034	T X A
-1.4021721	A X A
-3.468799	N X A
-1.3799247	| X A
-2.3608298	Y X A
-2.0540855	O X A
-2.519258	U X A
-3.2033658	I X A
-1.1695532	M X A
-1.0702775	S X A
-1.0202409	E X A
-2.1703901	R X A
-1.391847	D X A
-3.2790506	L X A
-1.3185011	' X A
-3.2700565	<s> Q A
-3.7967434	H Q A
-2.3283288	A Q A
-4.501758	N Q A
-3.8001347	| Q A
-3.1228569	O Q A
-2.649574	U Q A
-1.4404291	G Q A
-3.1925645	I Q A
-2.657678	M Q A
-4.537618	S Q A
-5.290891	E Q A
-3.1760552	R Q A
-2.9884982	L Q A
-4.410729	C Q A
-1.3023399	B Q A
-4.365022	X Q A
-0.8587645	Q Q A
-0.7246382	<s> J A
-0.6059136	T J A
-0.63789606	H J A
-1.0143676	A J A
-1.3105925	N J A
-0.20677175	K J A
-0.8281578	| J A
-0.054345366	Y J A
-0.9201781	O J A
-0.54087186	U J A
-0.34358963	G J A
-0.37444127	I J A
-0.2458179	M J A
-0.83347833	S J A
-0.9570664	E J A
-1.3459499	R J A
-0.89780337	D J A
-1.4171209	V J A
-0.43026292	L J A
-0.67643553	P J A
-0.80092555	C J A
-0.44968688	W J A
-3.1302204	B J A
-1.3909812	F J A
-0.54417217	X J A
-0.7415705	J J A
-0.6298344	Z J A
-0.6755692	' J A
-0.66296655	<s> Z A
-1.4089786	T Z A
-1.0346653	H Z A
-1.0487812	A Z A
-0.68076867	N Z A
-0.33700287	K Z A
-0.89108276	| Z A
-0.7551037	Y Z A
-1.3298157	O Z A
-1.3417933	U Z A
-0.044459883	G Z A
-0.7902879	I Z A
-0.674201	M Z A
-1.2615116	S Z A
-1.6690204	E Z A
-0.39497674	R Z A
-0.92890364	D Z A
-1.6483755	V Z A
-0.51297915	L Z A
-2.1556866	P Z A
-0.23925148	C Z A
-1.721428	W Z A
-0.66828495	B Z A
-0.8237133	F Z A
-0.3722618	X Z A
-0.3313455	J Z A
-0.9053062	Z Z A
-0.7523215	' Z A
-3.0708451	T ' A
-2.0315244	H ' A
-0.9702214	A ' A
-3.5432584	N ' A
-2.401247	K ' A
-3.1189575	Y ' A
-2.911457	O ' A
-2.8505704	U ' A
-3.0809407	G ' A
-3.836661	I ' A
-1.9032614	M ' A
-2.1853049	S ' A
-3.422467	E ' A
-2.3274927	R ' A
-1.1548102	D ' A
-2.8065684	V ' A
-1.4798871	L ' A
-2.5941641	P ' A
-1.8439451	C ' A
-2.2239368	W ' A
-1.6706939	B ' A
-2.4306304	F ' A
-3.2423315	X ' A
-2.3725154	Q ' A
-0.31447905	J ' A
-2.1390512	Z ' A
-1.9500512	' ' A
-6.4097133	<s> T N
-4.403784	T T N
-2.1557524	H T N
-3.296543	A T N
-3.4177942	N T N
-3.9346447	K T N
-6.518147	| T N
-3.701818	Y T N
-2.7884834	O T N
-3.267957	U T N
-4.8978877	G T N
-2.5905573	I T N
-3.551395	M T N
-2.8192534	S T N
-2.767126	E T N
-2.2126575	R T N
-3.572433	D T N
-2.2945743	V T N
-3.6875272	L T N
-2.759758	P T N
-2.719816	C T N
-4.314927	W T N
-4.2880774	B T N
-2.5037534	F T N
-5.418595	X T N
-5.433021	' T N
-5.7394824	<s> H N
-4.264679	T H N
-3.6454644	H H N
-2.055204	A H N
-3.584915	N H N
-2.1988304	K H N
-5.737021	| H N
-3.001653	Y H N
-0.45747966	O H N
-1.8640931	U H N
-2.6583872	G H N
-2.0685596	I H N
-2.4298286	M H N
-2.591816	S H N
-2.897348	E H N
-4.5178704	R H N
-3.7437775	D H N
-4.355084	L H N
-2.5693045	P H N
-2.8082464	C H N
-6.34662	W H N
-3.3447523	B H N
-3.3960876	F H N
-1.7259601	J H N
-1.3304069	Z H N
-3.0683699	' H N
-0.43325663	<s> A N
-0.73767686	T A N
-0.9788646	H A N
-1.0834179	A A N
-1.1683435	N A N
-1.0944214	K A N
-0.4422754	| A N
-0.8395639	Y A N
-1.3129342	O A N
-1.4395462	U A N
-0.8771566	G A N
-0.535621	I A N
-0.4666876	M A N
-1.0585771	S A N
-1.29147	E A N
-0.7288609	R A N
-0.90903175	D A N
-0.5979701	V A N
-0.800684	L A N
-1.0324287	P A N
-0.7002959	C A N
-1.3683082	W A N
-0.83304906	B A N
-1.3329736	F A N
-1.0854776	X A N
-0.91473156	Q A N
-0.77767754	J A N
-1.058547	Z A N
-1.1606405	' A N
-5.8588023	<s> N N
-5.3082986	T N N
-1.1419718	H N N
-1.741316	A N N
-4.4237733	N N N
-5.1688404	K N N
-5.495322	| N N
-1.2131578	Y N N
-2.2509642	O N N
-1.6115716	U N N
-4.178532	G N N
-2.0601485	I N N
-4.3878226	M N N
-5.424098	S N N
-2.2021198	E N N
-3.0683882	R N N
-5.3472786	D N N
-3.799534	V N N
-4.1624064	P N N
-3.792176	C N N
-4.3547573	W N N
-4.1367297	B N N
-3.6766124	F N N
-2.442101	' N N
-0.85488576	<s> K N
-1.8914819	T K N
-2.7569425	H K N
-2.0688603	A K N
-1.5838801	N K N
-1.3679622	K K N
-0.30138236	| K N
-2.794368	Y K N
-4.519586	O K N
-2.8606753	U K N
-1.5928385	G K N
-4.4193573	I K N
-3.1255472	M K N
-3.362267	S K N
-2.1755722	E K N
-1.3629961	R K N
-3.1867282	D K N
-2.5544622	L K N
-1.9117612	P K N
-1.7472103	C K N
-2.78133	W K N
-0.6548698	B K N
-2.5250142	F K N
-1.9553181	Z K N
-0.99426216	' K N
-1.7170669	T | N
-1.8180223	H | N
-1.6034837	A | N
-1.9220326	N | N
-1.8825088	K | N
-1.7108998	Y | N
-1.7107934	O | N
-1.6313245	U | N
-1.890165	G | N
-1.7447426	I | N
-1.6391934	M | N
-1.476473	S | N
-1.6417447	E | N
-1.7578397	R | N
-1.4523175	D | N
-1.66291	V | N
-1.5665965	L | N
-2.0244503	P | N
-1.7067845	C | N
-1.6411675	W | N
-1.8526351	B | N
-1.8816099	F | N
-1.937227	X | N
-1.9406288	Q | N
-1.8467368	J | N
-1.8454833	Z | N
-1.3976781	' | N
-4.4899077	<s> Y N
-2.9874854	T Y N
-2.2792788	H Y N
-2.4422789	A Y N
-3.373672	N Y N
-2.1802444	K Y N
-4.2743235	| Y N
-2.9395437	Y Y N
-2.1627004	O Y N
-1.8537954	U Y N
-2.4198368	G Y N
-3.3689175	I Y N
-2.9412289	M Y N
-1.6112818	S Y N
-2.6928887	E Y N
-3.0242443	R Y N
-2.148193	D Y N
-1.9396858	V Y N
-2.4426997	L Y N
-2.5516832	P Y N
-1.5359213	C Y N
-0.7484368	W Y N
-3.220888	B Y N
-2.0290456	F Y N
-3.1127725	X Y N
-1.123787	Q Y N
-0.956017	J Y N
-2.2947106	Z Y N
-3.3538127	' Y N
-0.36877292	<s> O N
-1.4194651	T O N
-1.5661397	H O N
-1.657291	A O N
-1.7346067	N O N
-0.4274271	K O N
-0.74111223	| O N
-1.534966	Y O N
-1.0863336	O O N
-1.7249917	U O N
-1.0678452	G O N
-0.093754254	I O N
-0.71883774	M O N
-0.7929084	S O N
-0.8967307	E O N
-1.2086825	R O N
-0.725476	D O N
-1.582759	V O N
-0.7407802	L O N
-0.67787313	P O N
-0.56618273	C O N
-1.1644144	W O N
-1.4666038	B O N
-2.217458	F O N
-0.2779785	X O N
-0.9696103	Q O N
-1.4402301	J O N
-0.29216063	Z O N
-1.0916415	' O N
-0.24066229	<s> U N
-1.110892	T U N
-0.57056075	H U N
-1.1372535	A U N
-1.6517177	N U N
-0.93849784	K U N
-0.42148906	| U N
-1.0893476	Y U N
-0.9275832	O U N
-1.6049222	U U N
-0.99475443	G U N
-2.5224397	I U N
-1.2885092	M U N
-1.2222667	S U N
-1.559753	E U N
-0.8678257	R U N
-1.4902235	D U N
-2.0386276	V U N
-0.9455725	L U N
-1.2525004	P U N
-1.8649544	C U N
-0.26960742	W U N
-1.7357463	B U N
-1.3152454	F U N
-3.3140993	X U N
-4.987512	Q U N
-1.2261417	J U N
-1.413481	Z U N
-0.388964	' U N
-3.219265	<s> G N
-4.003779	T G N
-2.4679992	H G N
-1.586328	A G N
-3.480178	N G N
-3.9586105	K G N
-2.9847507	| G N
-1.5273876	Y G N
-0.95576775	O G N
-2.8306394	U G N
-3.9531596	G G N
-0.99193215	I G N
-3.1013992	M G N
-3.8083425	S G N
-2.254034	E G N
-2.926409	R G N
-4.8353934	D G N
-3.8369808	L G N
-2.936719	C G N
-3.4821992	W G N
-1.915667	' G N
-0.91339517	<s> I N
-0.7490295	T I N
-0.75587785	H I N
-0.38383242	A I N
-0.46373886	N I N
-0.10194521	K I N
-0.37871498	| I N
-0.03431597	Y I N
-0.271229	O I N
-1.1174924	U I N
-0.5021713	G I N
-2.0715485	I I N
-0.5640449	M I N
-0.7538352	S I N
-0.7433555	E I N
-0.72902286	R I N
-0.66250664	D I N
-0.53200996	V I N
-0.76605695	L I N
-0.5730946	P I N
-1.0378487	C I N
-0.9408542	W I N
-0.8406885	B I N
-0.66980046	F I N
-1.2102696	X I N
-1.1007435	Q I N
-0.9420857	J I N
-0.19139388	Z I N
-0.37534907	' I N
-4.52556	<s> M N
-5.455719	T M N
-4.504375	H M N
-2.3591526	A M N
-4.9992533	N M N
-4.8304553	| M N
-1.2143865	Y M N
-2.9455166	O M N
-1.5598881	U M N
-4.9982452	G M N
-2.6017919	I M N
-4.9112134	M M N
-6.018066	S M N
-1.8937496	E M N
-2.6344378	R M N
-5.4742403	D M N
-2.0411105	V M N
-2.0537932	L M N
-3.5687842	W M N
-3.6096907	F M N
-3.496994	X M N
-3.6320527	Z M N
-5.0058403	' M N
-2.4479592	<s> S N
-5.3377833	T S N
-4.3601856	H S N
-2.4506202	A S N
-3.8067198	N S N
-2.848249	K S N
-2.2501135	| S N
-4.5177517	Y S N
-3.5507982	O S N
-2.1883173	U S N
-3.877032	G S N
-2.4367151	I S N
-4.9396596	M S N
-2.464969	S S N
-2.5599418	E S N
-3.9192555	R S N
-3.9962766	D S N
-3.583516	V S N
-4.4399586	L S N
-4.836657	P S N
-4.795865	C S N
-4.622658	W S N
-4.875444	B S N
-4.49725	F S N
-2.7119992	Z S N
-4.939359	' S N
-1.2393234	<s> E N
-0.9953564	T E N
-1.3553956	H E N
-1.5330049	A E N
-2.0924842	N E N
-1.0076706	K E N
-0.72876716	| E N
-2.543279	Y E N
-2.022159	O E N
-0.906048	U E N
-0.8705955	G E N
-0.77621514	I E N
-0.7100137	M E N
-1.090196	S E N
-0.5437411	E E N
-1.4353452	R E N
-0.9754959	D E N
-0.9563599	V E N
-1.2603815	L E N
-0.8680912	P E N
-1.2189829	C E N
-1.0907683	W E N
-1.6116374	B E N
-1.4544177	F E N
-1.3554457	X E N
-1.0581908	Q E N
-1.4696052	J E N
-0.81374145	Z E N
-1.03174	' E N
-5.9932	T R N
-4.549118	H R N
-1.6458777	A R N
-4.7881093	N R N
-3.551457	K R N
-5.163831	| R N
-1.8220019	Y R N
-1.4566406	O R N
-0.94811004	U R N
-6.1185627	G R N
-2.853129	I R N
-4.3165455	M R N
-3.7655845	S R N
-1.7115425	E R N
-4.033962	R R N
-5.9159975	D R N
-3.9534914	V R N
-5.400058	L R N
-6.42894	P R N
-5.3138957	C R N
-4.734523	W R N
-5.3852563	B R N
-6.4755287	F R N
-2.0966399	J R N
-3.887604	' R N
-4.9892406	<s> D N
-4.383475	H D N
-2.2124968	A D N
-2.886732	N D N
-3.4075856	K D N
-4.875845	| D N
-0.968184	Y D N
-2.1399944	O D N
-3.1631696	U D N
-4.6131516	G D N
-1.573354	I D N
-3.5429475	M D N
-3.707208	S D N
-2.780479	E D N
-2.63833	R D N
-3.6834726	D D N
-1.6109796	L D N
-3.985243	C D N
-1.8591144	W D N
-4.4364557	B D N
-2.992961	F D N
-2.470456	X D N
-2.992136	J D N
-2.8711853	Z D N
-3.7096317	' D N
-4.3996296	<s> V N
-3.3482523	T V N
-3.4668796	H V N
-4.144809	A V N
-5.6241965	N V N
-4.564349	| V N
-3.3821943	Y V N
-2.8606467	O V N
-2.2575574	U V N
-3.069274	G V N
-4.220452	I V N
-2.882613	M V N
-3.4056835	E V N
-4.8511796	R V N
-5.2074156	D V N
-3.5712738	V V N
-5.590108	L V N
-2.0266294	C V N
-4.413194	B V N
-2.1166875	F V N
-3.5736501	X V N
-4.122218	' V N
-4.6476774	H L N
-3.4077022	A L N
-5.789021	N L N
-5.0459533	K L N
-6.1150756	| L N
-3.953825	Y L N
-2.4053462	O L N
-2.2608578	U L N
-3.5874958	I L N
-4.2466917	M L N
-5.6410165	S L N
-3.7059596	E L N
-5.9747305	R L N
-5.492013	D L N
-2.6809943	L L N
-6.1032815	P L N
-4.8628116	C L N
-5.314261	W L N
-6.2473536	B L N
-5.1525855	F L N
-5.39281	' L N
-3.9134557	<s> P N
-3.096932	A P N
-4.886865	N P N
-3.7749233	K P N
-4.0250216	| P N
-1.4772617	Y P N
-4.9926085	O P N
-4.68608	U P N
-3.9694068	I P N
-3.1018834	M P N
-4.2278314	S P N
-3.6069398	E P N
-2.5511029	R P N
-4.0996375	D P N
-4.386735	L P N
-3.8196416	P P N
-3.0590274	C P N
-2.433986	B P N
-4.153022	<s> C N
-5.9055996	T C N
-4.0342717	H C N
-3.9881496	A C N
-6.521082	N C N
-3.5876558	K C N
-4.794579	| C N
-3.6187024	Y C N
-4.587245	O C N
-5.7881575	U C N
-3.2873642	G C N
-3.1742268	I C N
-3.2442086	M C N
-5.6611266	S C N
-5.267277	E C N
-5.220474	R C N
-4.329571	D C N
-1.9683731	V C N
-4.778545	L C N
-3.3765905	P C N
-5.8584394	C C N
-2.8592744	F C N
-2.1204205	J C N
-4.779025	' C N
-5.467826	T W N
-4.91038	H W N
-1.1114473	A W N
-4.090638	N W N
-6.5831347	| W N
-4.1022167	Y W N
-0.6228573	O W N
-3.0278866	U W N
-3.6499972	G W N
-2.8129904	I W N
-3.9169917	M W N
-5.8665867	S W N
-2.3515568	E W N
-5.350595	R W N
-4.9252515	D W N
-5.352974	L W N
-4.4987106	P W N
-1.5237335	C W N
-2.6750464	W W N
-3.4731965	X W N
-1.7250772	Q W N
-3.2247646	' W N
-5.0047235	H B N
-2.7451441	A B N
-4.938413	N B N
-6.1536765	| B N
-4.771176	Y B N
-2.7703679	O B N
-3.750752	U B N
-2.6819162	I B N
-3.113563	M B N
-3.7759447	S B N
-3.0740244	E B N
-4.7164083	R B N
-4.3728414	D B N
-4.8013697	L B N
-4.280257	P B N
-5.402574	B B N
-5.849612	<s> F N
-3.2385159	A F N
-5.707284	N F N
-6.2643557	| F N
-3.3474486	Y F N
-4.3451576	O F N
-3.920528	U F N
-4.863947	I F N
-4.2606187	E F N
-4.4844375	R F N
-4.2846336	L F N
-3.3854506	P F N
-2.9836998	F F N
-4.316683	X F N
-1.2581506	T X N
-3.4508886	A X N
-5.0309687	N X N
-3.7180128	| X N
-3.169499	Y X N
-3.983621	O X N
-4.443865	U X N
-4.100309	I X N
-4.974948	E X N
-0.5795635	D X N
-1.6861455	W X N
-4.509134	<s> Q N
-3.9807918	A Q N
-5.43981	| Q N
-4.655027	O Q N
-3.9907649	U Q N
-4.311492	I Q N
-2.77389	M Q N
-4.92552	S Q N
-5.408645	E Q N
-4.592156	<s> J N
-3.736454	T J N
-3.0896971	H J N
-3.3403637	A J N
-4.3602853	| J N
-2.8910153	Y J N
-3.0288348	O J N
-3.0439188	U J N
-2.4198642	G J N
-1.618247	I J N
-2.8840065	E J N
-3.8858752	R J N
-4.1238184	D J N
-3.24997	P J N
-3.1717598	<s> Z N
-2.9458706	T Z N
-2.5983648	H Z N
-3.2458317	A Z N
-4.4002237	N Z N
-3.3359385	| Z N
-3.5879028	Y Z N
-3.410254	O Z N
-2.142182	U Z N
-3.2167144	I Z N
-2.4443989	S Z N
-3.1683679	E Z N
-3.549563	R Z N
-1.9823185	D Z N
-2.5897841	L Z N
-3.1380723	C Z N
-2.87852	W Z N
-4.133807	Z Z N
-2.749656	' Z N
-2.6073306	T ' N
-2.5042377	H ' N
-1.3124645	A ' N
-3.9739633	N ' N
-2.2432141	K ' N
-3.3024406	Y ' N
-1.77176	O ' N
-3.1101422	U ' N
-3.1439064	G ' N
-3.326973	I ' N
-2.3838298	M ' N
-1.589425	S ' N
-2.3870308	E ' N
-2.2112396	R ' N
-2.4059107	D ' N
-0.62253827	V ' N
-2.6235058	L ' N
-0.9197365	P ' N
-1.5345895	C ' N
-3.0388625	W ' N
-2.5431108	B ' N
-1.52631	F ' N
-2.8360329	X ' N
-2.6958437	Q ' N
-2.5346808	J ' N
-2.0165665	Z ' N
-5.9424067	<s> T K
-4.707317	T T K
-4.5255747	H T K
-3.7515948	A T K
-5.662033	N T K
-6.8007364	| T K
-5.0237513	Y T K
-4.177307	O T K
-4.810165	U T K
-4.4220133	I T K
-3.8046153	M T K
-5.29261	S T K
-4.1074715	E T K
-5.131268	R T K
-3.3090944	D T K
-3.6960442	L T K
-5.8864613	P T K
-6.604916	C T K
-4.343392	W T K
-5.522441	B T K
-6.280998	F T K
-5.916294	' T K
-5.900627	T H K
-2.9252415	A H K
-4.2168703	N H K
-3.3432817	K H K
-6.471866	| H K
-4.5273514	O H K
-2.688434	U H K
-4.3472247	G H K
-3.5114655	I H K
-3.4421241	S H K
-4.7429185	E H K
-5.5812807	R H K
-3.5116658	D H K
-4.469511	L H K
-5.023675	P H K
-3.5557632	C H K
-1.5400816	Z H K
-3.6381285	<s> A K
-0.89196014	T A K
-2.4503922	H A K
-1.7216789	A A K
-1.9641834	N A K
-2.3562367	K A K
-3.8628395	| A K
-1.9480728	Y A K
-1.3809843	O A K
-2.1009965	U A K
-3.9251318	G A K
-3.2927814	I A K
-1.1152214	M A K
-1.985599	S A K
-1.4252448	E A K
-2.5978234	R A K
-2.9528532	D A K
-3.428784	V A K
-2.0614429	L A K
-2.7743704	P A K
-2.5630693	C A K
-2.1264496	W A K
-2.1377177	B A K
-3.0729368	F A K
-4.876778	X A K
-2.5953848	Q A K
-1.7368408	J A K
-2.405136	Z A K
-2.7260296	' A K
-4.412825	<s> N K
-5.2724514	T N K
-3.478796	H N K
-1.8801357	A N K
-2.9148788	N N K
-4.456529	| N K
-2.7830093	Y N K
-2.809217	O N K
-1.7171932	U N K
-1.6737183	I N K
-5.3009853	M N K
-5.216186	S N K
-3.2783322	E N K
-3.5330982	R N K
-3.3750162	V N K
-5.3832545	W N K
-3.9331987	B N K
-3.822828	' N K
-3.6677403	T K K
-2.2707312	H K K
-3.2265506	A K K
-5.552672	N K K
-5.392911	| K K
-2.0146	Y K K
-3.230691	O K K
-2.1475885	U K K
-3.01285	I K K
-5.411807	S K K
-2.4559467	E K K
-4.2749715	R K K
-4.010337	C K K
-4.3797965	W K K
-2.7511644	F K K
-3.2732623	' K K
-2.189985	T | K
-2.533257	H | K
-2.0969117	A | K
-2.4754324	N | K
-2.584108	K | K
-2.2015388	Y | K
-1.9204148	O | K
-1.3726473	U | K
-2.6262996	G | K
-1.5104042	I | K
-2.5196683	M | K
-2.3834536	S | K
-2.1337667	E | K
-2.2491837	R | K
-2.3615315	D | K
-2.2536883	V | K
-2.0786402	L | K
-2.6465402	P | K
-1.9817054	C | K
-2.5379539	W | K
-2.2605329	B | K
-2.4747815	F | K
-2.3582885	X | K
-2.366592	Q | K
-1.8037604	J | K
-1.9860324	Z | K
-2.1347997	' | K
-5.8316517	<s> Y K
-3.6841645	T Y K
-3.9407296	H Y K
-4.2565355	A Y K
-4.752235	N Y K
-3.5275083	K Y K
-5.8789926	| Y K
-4.192267	O Y K
-2.81866	U Y K
-4.0985303	G Y K
-4.399407	M Y K
-2.8903656	S Y K
-3.8867555	E Y K
-3.9511101	R Y K
-2.2564397	D Y K
-4.7334023	V Y K
-4.158669	L Y K
-3.1802454	P Y K
-4.769507	C Y K
-2.289966	W Y K
-4.526649	B Y K
-3.5843296	F Y K
-3.296354	Z Y K
-3.190216	<s> O K
-3.1153693	T O K
-2.7832193	H O K
-2.96379	A O K
-3.8789065	N O K
-1.8170277	K O K
-4.100601	| O K
-2.9984791	Y O K
-0.5939108	O O K
-3.4260478	U O K
-4.4350133	G O K
-4.6182046	I O K
-1.923528	M O K
-4.0416656	S O K
-3.6596327	E O K
-1.7926095	R O K
-3.7778745	D O K
-1.774689	V O K
-3.3684225	L O K
-1.4274758	P O K
-3.8581195	C O K
-2.3683147	W O K
-3.1909745	B O K
-4.2568007	F O K
-3.5601332	X O K
-2.1726887	Q O K
-1.5227336	J O K
-3.006766	Z O K
-3.1600316	' O K
-3.0629122	<s> U K
-3.2617261	T U K
-3.4406028	H U K
-3.0005898	A U K
-3.2179234	N U K
-1.6516497	K U K
-3.7231302	| U K
-1.0524422	Y U K
-4.179481	O U K
-2.6266007	U U K
-4.527481	G U K
-2.867903	I U K
-3.2170215	M U K
-3.3627696	S U K
-2.905302	E U K
-3.4269257	R U K
-1.4238483	D U K
-2.6759634	V U K
-2.187669	L U K
-3.42327	P U K
-4.7874627	C U K
-2.131757	W U K
-2.7683275	B U K
-4.246421	F U K
-6.28085	Q U K
-3.2055998	J U K
-1.6638474	Z U K
-2.834887	' U K
-5.25282	A G K
-4.438314	N G K
-5.8383727	| G K
-5.1234307	O G K
-5.538489	U G K
-5.727494	G G K
-4.9062667	I G K
-5.4138117	E G K
-4.6874228	R G K
-3.8124382	D G K
-3.9937506	<s> I K
-3.763517	T I K
-3.706647	H I K
-3.3880944	A I K
-2.7678926	N I K
-3.4830477	K I K
-4.0106378	| I K
-3.6835108	Y I K
-3.2998848	O I K
-3.394187	U I K
-4.395868	G I K
-3.376419	I I K
-2.7523265	M I K
-3.4222739	S I K
-2.9293003	E I K
-2.1986296	R I K
-3.379158	D I K
-2.9364243	V I K
-0.9691758	L I K
-2.2558796	P I K
-4.8111424	C I K
-4.2918644	W I K
-3.2838624	B I K
-4.079287	F I K
-4.044537	X I K
-1.240793	Q I K
-2.293912	J I K
-2.609071	Z I K
-3.8496833	' I K
-5.0868545	<s> M K
-4.2813206	H M K
-4.432421	A M K
-5.43783	| M K
-3.569654	Y M K
-4.289941	O M K
-3.8391097	U M K
-4.3907433	I M K
-4.7441545	M M K
-4.5196843	E M K
-5.8411846	R M K
-5.595818	D M K
-4.337189	L M K
-5.223712	' M K
-2.7680404	<s> S K
-2.7220273	T S K
-3.4312422	H S K
-1.5585603	A S K
-2.8547168	N S K
-2.6692238	K S K
-2.1570077	| S K
-3.6111789	Y S K
-3.1070619	O S K
-2.2867332	U S K
-3.3807104	G S K
-2.4288888	I S K
-3.262417	M S K
-4.5333514	S S K
-2.795782	E S K
-3.1781	R S K
-3.045443	D S K
-0.17644505	V S K
-2.7949655	L S K
-2.8811262	P S K
-3.0902808	C S K
-2.3137348	W S K
-3.413411	B S K
-2.0545146	F S K
-1.8176575	X S K
-0.8108981	J S K
-1.3603172	Z S K
-5.620729	' S K
-3.3133461	<s> E K
-4.165685	T E K
-4.5010867	H E K
-2.7225642	A E K
-3.7392657	N E K
-4.1717625	K E K
-3.725488	| E K
-4.021825	Y E K
-2.938476	O E K
-4.6433477	U E K
-4.618528	G E K
-2.5121279	I E K
-3.8075244	M E K
-3.1181414	S E K
-1.4357238	E E K
-3.7020824	R E K
-3.794472	D E K
-5.0057354	V E K
-3.9035459	L E K
-3.4807284	P E K
-4.770403	C E K
-4.946175	W E K
-3.811548	B E K
-3.8195107	F E K
-5.2521424	X E K
-2.8051305	J E K
-2.3827977	Z E K
-4.367205	' E K
-5.4139547	<s> R K
-6.3716507	T R K
-5.828575	H R K
-1.4423492	A R K
-3.877225	K R K
-5.462273	| R K
-3.3726406	Y R K
-1.5302858	O R K
-2.3582425	U R K
-2.5062385	I R K
-4.467064	M R K
-4.486	S R K
-2.8552032	E R K
-4.472898	R R K
-6.0751715	D R K
-4.2532606	V R K
-6.213993	P R K
-5.6542044	C R K
-5.400572	W R K
-6.025677	B R K
-6.5053477	F R K
-4.8818707	' R K
-5.7806726	<s> D K
-4.427635	A D K
-3.1559677	N D K
-6.4326544	| D K
-4.5761256	Y D K
-3.3531082	O D K
-3.807971	U D K
-5.266288	I D K
-5.4073997	E D K
-4.7150874	R D K
-6.0327587	D D K
-5.3116693	L D K
-5.0853558	W D K
-3.124452	Z D K
-4.68312	A V K
-6.5508633	| V K
-3.0723343	Y V K
-4.314578	O V K
-4.285016	U V K
-5.559675	I V K
-4.207984	S V K
-4.9516826	E V K
-6.0246496	R V K
-5.207069	L V K
-3.8371997	Z V K
-4.418391	<s> L K
-6.519356	T L K
-4.587918	H L K
-1.4210372	A L K
-5.9364557	N L K
-5.5662527	K L K
-5.607989	| L K
-2.7942324	Y L K
-1.9872531	O L K
-2.4745195	U L K
-6.2101507	G L K
-2.0603974	I L K
-5.8865294	S L K
-3.1631064	E L K
-4.4099708	R L K
-5.7411065	D L K
-2.7502468	V L K
-5.042836	L L K
-5.7158012	C L K
-3.9240716	W L K
-4.8729634	' L K
-3.8846564	H P K
-2.9920025	A P K
-6.2938986	| P K
-5.018629	Y P K
-2.7862818	O P K
-3.9560661	U P K
-3.4848626	I P K
-2.7931247	M P K
-5.7033544	S P K
-4.8778753	E P K
-5.6024013	L P K
-6.29671	P P K
-3.1295085	J P K
-5.6620417	<s> C K
-4.8980556	T C K
-3.5613122	H C K
-0.6944372	A C K
-3.0484803	N C K
-5.5991716	| C K
-1.3401918	Y C K
-0.45275295	O C K
-0.93768525	U C K
-0.97739446	I C K
-2.545176	M C K
-4.6248245	S C K
-1.2812439	E C K
-2.7365887	R C K
-2.3841047	L C K
-3.418965	W C K
-3.489613	B C K
-2.8811238	F C K
-5.7745347	X C K
-0.17803548	J C K
-2.6035483	Z C K
-3.9094658	' C K
-6.460163	<s> W K
-1.6661891	A W K
-4.9700656	K W K
-6.332402	| W K
-4.1066217	O W K
-3.5587635	U W K
-3.7743995	I W K
-3.5483255	E W K
-5.5138106	R W K
-2.9703767	W W K
-4.7090354	T B K
-4.9409285	A B K
-6.8241057	| B K
-4.0881057	O B K
-3.7425275	U B K
-4.240393	G B K
-4.9734893	I B K
-3.5168664	M B K
-3.1895506	E B K
-5.0189404	L B K
-4.8272343	A F K
-5.9727697	N F K
-4.8910084	K F K
-6.506131	| F K
-5.621318	O F K
-4.0710135	U F K
-4.7976637	I F K
-4.956573	M F K
-5.056429	E F K
-5.7505145	R F K
-4.43547	L F K
-4.1505027	P F K
-4.314823	F F K
-5.0830812	A X K
-5.013506	N X K
-4.5765843	| X K
-4.1482882	O X K
-4.9268117	U X K
-5.7620707	E X K
-1.0845298	J X K
-4.8698406	O Q K
-3.0842974	M Q K
-2.0314581	P Q K
-3.0704973	A J K
-3.9222083	N J K
-5.6510653	| J K
-3.1042929	Y J K
-3.6964507	O J K
-1.9686245	I J K
-2.778095	E J K
-4.388897	R J K
-2.9684324	L J K
-2.711647	Z J K
-1.6227758	T Z K
-3.0430999	H Z K
-3.5879273	A Z K
-2.3555248	N Z K
-4.0524507	| Z K
-4.351037	O Z K
-3.4419456	U Z K
-3.7254739	I Z K
-0.7149794	S Z K
-2.2766454	E Z K
-1.9812498	R Z K
-1.6839869	D Z K
-1.74357	V Z K
-2.762111	L Z K
-1.7085204	C Z K
-2.7388785	W Z K
-2.1322353	F Z K
-4.9446254	Z Z K
-4.636587	T ' K
-3.0988846	H ' K
-3.4672656	A ' K
-4.351031	N ' K
-3.5697455	K ' K
-3.3883085	Y ' K
-2.2762794	O ' K
-4.5165095	U ' K
-5.0550537	I ' K
-1.9424824	M ' K
-3.061889	S ' K
-4.560576	E ' K
-4.723317	R ' K
-3.526634	D ' K
-3.7882798	L ' K
-4.179231	P ' K
-3.5155795	C ' K
-4.52824	W ' K
-3.9776788	B ' K
-3.9363563	F ' K
-3.083153	<s> T |
-1.729186	T T |
-0.16226289	H T |
-0.27114406	A T |
-0.4515546	N T |
-1.0959786	K T |
-3.286203	| T |
-2.846196	Y T |
-0.31137985	O T |
-0.15567395	U T |
-2.5975444	G T |
-0.51586604	I T |
-0.95869774	M T |
-0.48528117	S T |
-0.45879468	E T |
-0.58368886	R T |
-0.5172491	D T |
-1.0544556	V T |
-0.4215107	L T |
-0.4629612	P T |
-0.6052451	C T |
-1.3300744	W T |
-0.41323805	B T |
-0.5732273	F T |
-0.44019818	X T |
-0.8776996	J T |
-0.5214358	Z T |
-0.009215232	' T |
-2.9781277	<s> H |
-1.0391496	T H |
-1.7609029	H H |
-0.32914108	A H |
-2.8444586	N H |
-1.1625305	K H |
-3.044791	| H |
-3.037393	Y H |
-0.30991924	O H |
-0.41133153	U H |
-0.6218382	G H |
-1.4288006	I H |
-1.7093464	M H |
-0.97941035	S H |
-1.559368	E H |
-2.6318555	R H |
-1.8569176	D H |
-2.644709	V H |
-2.7848768	L H |
-1.014333	P H |
-0.31647947	C H |
-4.261946	W H |
-1.6846045	B H |
-2.30274	F H |
-4.7236395	X H |
-1.0516587	Q H |
-2.22167	J H |
-1.532719	Z H |
-2.063844	' H |
-0.794095	<s> A |
-1.874982	T A |
-2.5945296	H A |
-1.3471435	A A |
-1.2302527	N A |
-1.0109124	K A |
-0.70245534	| A |
-1.3750148	Y A |
-2.1195161	O A |
-2.08169	U A |
-2.1735013	G A |
-0.9277158	I A |
-1.9953648	M A |
-2.154495	S A |
-1.6706026	E A |
-1.6657438	R A |
-1.4817846	D A |
-1.7860389	V A |
-1.7109612	L A |
-2.137577	P A |
-1.9952321	C A |
-3.05284	W A |
-2.2023594	B A |
-2.4098883	F A |
-2.5698876	X A |
-1.2066867	Q A |
-1.9183427	J A |
-0.8996152	Z A |
-1.775114	' A |
-2.6199367	<s> N |
-3.4483387	T N |
-0.3054694	H N |
-0.7941192	A N |
-1.4619201	N N |
-4.5437436	K N |
-2.5721025	| N |
-0.73340714	Y N |
-0.41283044	O N |
-1.3613211	U N |
-0.74663407	G N |
-0.5615898	I N |
-0.4598081	M N |
-3.4172115	S N |
-0.4393735	E N |
-0.5986577	R N |
-2.6235151	D N |
-1.906627	V N |
-0.96078134	L N |
-2.739828	P N |
-2.7673447	C N |
-0.07779572	W N |
-1.212404	B N |
-1.852312	F N |
-1.3765814	X N |
-1.1824951	Q N |
-1.2350588	J N |
-2.5632117	Z N |
-0.32799494	' N |
-1.9374969	<s> K |
-2.4208493	T K |
-1.7047487	H K |
-0.9566253	A K |
-0.2489223	N K |
-2.4221654	K K |
-2.4537265	| K |
-1.3590391	Y K |
-0.41111618	O K |
-1.2347685	U K |
-1.0197722	G K |
-2.1275532	I K |
-2.2774541	M K |
-0.6207283	S K |
-0.35316148	E K |
-0.3264806	R K |
-3.6396058	D K |
-2.672373	V K |
-0.38838	L K |
-3.7625961	P K |
-0.28018764	C K |
-0.6697984	W K |
-2.8215563	B K |
-2.2161908	F K |
-1.5872793	X K |
-1.0670274	J K |
-1.3856285	Z K |
-1.5971073	' K |
-2.9392025	<s> Y |
-0.07320578	T Y |
-0.12307062	H Y |
-0.19511847	A Y |
-0.10951091	N Y |
-0.098992504	K Y |
-2.5473483	| Y |
-1.0535786	Y Y |
-0.43674496	O Y |
-0.19077782	U Y |
-0.23755641	G Y |
-1.3996415	I Y |
-0.06346782	M Y |
-0.31332555	S Y |
-0.13836104	E Y |
-0.08523419	R Y |
-0.08926541	D Y |
-0.04451962	V Y |
-0.050596796	L Y |
-0.14604145	P Y |
-0.13512944	C Y |
-0.58165574	W Y |
-0.018018339	B Y |
-0.17433871	F Y |
-0.3599357	X Y |
-1.1238482	Q Y |
-0.42800367	J Y |
-0.075322516	Z Y |
-0.68613714	' Y |
-1.5226749	<s> O |
-0.13259572	T O |
-0.88303226	H O |
-1.2951417	A O |
-0.827432	N O |
-1.1518576	K O |
-2.365675	| O |
-2.7933614	Y O |
-1.1253277	O O |
-1.975563	U O |
-0.718203	G O |
-2.0969903	I O |
-2.5846481	M O |
-0.55563366	S O |
-1.8074439	E O |
-1.9873427	R O |
-0.71401036	D O |
-2.1670842	V O |
-2.1051478	L O |
-2.7786975	P O |
-2.18046	C O |
-0.85946083	W O |
-2.6205595	B O |
-3.4489932	F O |
-2.0364516	X O |
-2.307033	Q O |
-2.120666	J O |
-0.99068964	Z O |
-1.6957477	' O |
-2.2235355	<s> U |
-2.6907222	T U |
-2.6265113	H U |
-1.6290672	A U |
-2.341663	N U |
-1.189107	K U |
-2.4463227	| U |
-0.9451317	Y U |
-0.76784706	O U |
-1.4081509	U U |
-2.884461	G U |
-2.246299	I U |
-3.2896197	M U |
-3.2771246	S U |
-1.4029255	E U |
-2.6023583	R U |
-1.927115	D U |
-2.1023145	V U |
-2.404637	L U |
-3.278573	P U |
-3.3850486	C U |
-1.9882628	W U |
-3.223269	B U |
-2.886061	F U |
-3.7355955	X U |
-3.9832387	Q U |
-3.0824127	J U |
-1.3061061	Z U |
-1.1467924	' U |
-2.1242197	<s> G |
-3.9776306	T G |
-1.5265042	H G |
-1.6754009	A G |
-0.12106736	N G |
-4.067324	K G |
-2.6726458	| G |
-2.7250683	Y G |
-0.9323749	O G |
-1.9053531	U G |
-1.5489105	G G |
-1.4520411	I G |
-2.1522293	M G |
-3.7010083	S G |
-1.4127458	E G |
-1.4878575	R G |
-3.8641043	D G |
-2.9308155	L G |
-0.93733466	P G |
-2.4894433	C G |
-1.1150426	W G |
-2.0925088	B G |
-3.3818774	F G |
-2.3625169	X G |
-2.0360034	' G |
-0.34195018	<s> I |
-2.6425765	T I |
-3.1699681	H I |
-2.7329218	A I |
-2.1596143	N I |
-2.1551797	K I |
-0.7911921	| I |
-2.7592676	Y I |
-2.4142232	O I |
-2.2802114	U I |
-2.670453	G I |
-0.35961497	I I |
-2.547755	M I |
-2.8096817	S I |
-2.7464075	E I |
-2.543416	R I |
-2.6014192	D I |
-2.8152714	V I |
-2.53758	L I |
-2.4282808	P I |
-2.6871994	C I |
-2.950826	W I |
-2.3349054	B I |
-3.3080103	F I |
-1.9254699	X I |
-0.89118373	Q I |
-1.5599911	J I |
-1.4921633	Z I |
-0.8330201	' I |
-1.8738136	<s> M |
-4.6381445	T M |
-1.6970288	H M |
-0.76998365	A M |
-3.4374752	N M |
-3.4468703	K M |
-2.4723244	| M |
-2.0353513	Y M |
-0.49655032	O M |
-1.0046401	U M |
-2.088198	G M |
-0.4755375	I M |
-2.5806592	M M |
-0.93185306	S M |
-0.59625155	E M |
-0.6380793	R M |
-5.190152	D M |
-0.4409362	V M |
-0.8066851	L M |
-2.8953555	P M |
-3.0240855	C M |
-1.8848188	W M |
-4.2187486	B M |
-2.9980345	F M |
-3.3107028	X M |
-1.1685965	Q M |
-2.1933627	J M |
-2.174335	Z M |
-0.011064939	' M |
-2.6508925	<s> S |
-0.07757101	T S |
-0.12251935	H S |
-0.1931871	A S |
-0.41531277	N S |
-0.082807854	K S |
-2.8253384	| S |
-0.20992064	Y S |
-1.8078418	O S |
-0.51488197	U S |
-0.08524587	G S |
-0.24362887	I S |
-0.40880728	M S |
-0.39041457	S S |
-0.39524305	E S |
-0.33082667	R S |
-0.10156074	D S |
-0.6057827	V S |
-0.25038686	L S |
-0.13539577	P S |
-0.129167	C S |
-0.09839692	W S |
-0.7892171	B S |
-0.10504038	F S |
-1.2666577	X S |
-0.4941385	Q S |
-1.0924094	J S |
-1.934377	Z S |
-0.0074174465	' S |
-1.93603	<s> E |
-0.857986	T E |
-0.20963028	H E |
-0.7864697	A E |
-0.5302353	N E |
-0.38212824	K E |
-2.2596397	| E |
-1.0434589	Y E |
-0.8857187	O E |
-0.49643806	U E |
-0.54210305	G E |
-1.1483337	I E |
-0.37952062	M E |
-0.52643734	S E |
-0.7654528	E E |
-0.46093816	R E |
-0.7628799	D E |
-0.44810274	V E |
-0.4542246	L E |
-1.2186174	P E |
-0.3137739	C E |
-0.65822095	W E |
-0.5681391	B E |
-0.81488705	F E |
-1.4417276	X E |
-0.8829472	Q E |
-2.0568762	J E |
-0.54940283	Z E |
-1.7461807	' E |
-2.192208	<s> R |
-3.9318686	T R |
-2.9515977	H R |
-0.93371636	A R |
-3.6311991	N R |
-1.8900741	K R |
-2.5038586	| R |
-1.3679221	Y R |
-0.42066443	O R |
-0.5732514	U R |
-4.2301188	G R |
-0.4410009	I R |
-2.654976	M R |
-1.7709372	S R |
-0.37800497	E R |
-1.9930084	R R |
-3.2542279	D R |
-2.930814	V R |
-4.256351	L R |
-4.707743	P R |
-4.239631	C R |
-3.4002929	W R |
-3.9441664	B R |
-4.6097717	F R |
-0.8412168	X R |
-0.8730583	Q R |
-0.071360715	J R |
-2.904592	Z R |
-1.9231961	' R |
-2.2552922	<s> D |
-2.4801345	T D |
-2.3265586	H D |
-0.24366401	A D |
-0.111904606	N D |
-2.3614554	K D |
-2.5606253	| D |
-0.8280464	Y D |
-0.2946932	O D |
-0.867947	U D |
-2.627468	G D |
-0.3178818	I D |
-1.9788458	M D |
-2.8720076	S D |
-0.058199205	E D |
-0.33666873	R D |
-1.2426424	D D |
-1.086271	V D |
-0.10466793	L D |
-2.1743233	P D |
-2.0162559	C D |
-0.3781431	W D |
-1.7612921	B D |
-2.0464017	F D |
-1.4608603	X D |
-2.1887176	Q D |
-1.4016589	J D |
-0.65358084	Z D |
-0.010807761	' D |
-1.6789675	<s> V |
-2.3267875	T V |
-1.9275725	H V |
-2.9878328	A V |
-4.900343	N V |
-3.3243675	K V |
-2.1311734	| V |
-3.2112186	Y V |
-2.4802094	O V |
-2.0105934	U V |
-3.2218833	I V |
-2.0695593	M V |
-3.467393	S V |
-2.9021063	E V |
-3.3977165	R V |
-4.643081	D V |
-2.2912095	V V |
-3.6823096	L V |
-2.1703455	C V |
-2.5568993	W V |
-3.8743715	B V |
-2.359271	F V |
-0.5102634	X V |
-3.5467687	Z V |
-4.370367	' V |
-2.3805845	<s> L |
-3.6397386	T L |
-2.0698807	H L |
-0.6882717	A L |
-4.583289	N L |
-3.6423235	K L |
-2.5529702	| L |
-1.6809667	Y L |
-1.3221066	O L |
-0.8824637	U L |
-4.290275	G L |
-1.0556533	I L |
-3.717691	M L |
-4.10535	S L |
-1.0925347	E L |
-0.8622509	R L |
-3.9410641	D L |
-1.836178	V L |
-0.24374329	L L |
-4.4722886	P L |
-4.79126	C L |
-0.93993235	W L |
-4.6058154	B L |
-4.4738326	F L |
-2.101575	X L |
-0.7239169	Q L |
-2.021958	Z L |
-2.1948614	' L |
-2.0185435	<s> P |
-4.095522	T P |
-2.7518609	H P |
-1.2904547	A P |
-3.2609618	N P |
-3.710739	K P |
-2.6929479	| P |
-2.0514112	Y P |
-1.0150701	O P |
-0.40007475	U P |
-0.57530427	I P |
-1.2013289	M P |
-2.005699	S P |
-0.7259049	E P |
-1.0146326	R P |
-0.8679152	V P |
-0.36848885	L P |
-2.7784076	P P |
-2.9925432	C P |
-2.0350654	W P |
-2.3928366	B P |
-5.3230414	X P |
-0.97432315	Q P |
-1.4909592	' P |
-2.171308	<s> C |
-3.8442266	T C |
-2.3467655	H C |
-2.186459	A C |
-3.0385144	N C |
-3.7026467	K C |
-2.7586339	| C |
-3.167751	Y C |
-2.37219	O C |
-2.6720402	U C |
-3.013576	G C |
-1.0332376	I C |
-0.066470034	M C |
-3.1459522	S C |
-2.6996417	E C |
-2.5494576	R C |
-4.2006874	D C |
-1.8235898	V C |
-3.0938299	L C |
-4.8762283	C C |
-3.080224	W C |
-2.4354327	B C |
-1.9791101	F C |
-3.992396	X C |
-2.044974	Z C |
-3.774836	' C |
-2.9198415	<s> W |
-4.866935	T W |
-3.688948	H W |
-0.5093965	A W |
-4.6662865	N W |
-3.632848	K W |
-3.1192188	| W |
-3.9460757	Y W |
-0.3896704	O W |
-0.60359234	U W |
-3.6442082	G W |
-2.7451653	I W |
-3.7696078	M W |
-4.099228	S W |
-0.17262457	E W |
-4.338065	R W |
-3.6545284	D W |
-2.015106	V W |
-3.51026	L W |
-2.4803052	C W |
-1.9942465	W W |
-3.433165	B W |
-3.64683	F W |
-2.8820643	X W |
-2.4375107	' W |
-2.6102257	<s> B |
-2.7337878	T B |
-3.0376914	H B |
-1.957063	A B |
-3.8301444	N B |
-3.6838624	K B |
-2.9151328	| B |
-3.1170428	Y B |
-1.139981	O B |
-1.3127708	U B |
-4.016804	G B |
-2.0210218	I B |
-1.2746693	M B |
-4.083896	S B |
-1.5943233	E B |
-1.0426453	R B |
-2.2926502	D B |
-1.9267366	L B |
-2.6599302	C B |
-3.1647594	W B |
-1.6676135	B B |
-3.0975442	F B |
-3.1587372	X B |
-1.5815	Q B |
-1.1821238	J B |
-3.4664454	Z B |
-2.2271268	' B |
-2.5609736	<s> F |
-4.301988	T F |
-3.383465	H F |
-1.7179618	A F |
-3.8819764	N F |
-4.644829	K F |
-3.1087058	| F |
-2.4860504	Y F |
-0.035471726	O F |
-2.011936	U F |
-0.38958758	I F |
-4.179074	M F |
-4.6296206	S F |
-1.0471958	E F |
-1.3528376	R F |
-5.0265436	D F |
-1.0531914	V F |
-0.08688551	L F |
-1.3111205	P F |
-2.0711033	C F |
-3.2993772	W F |
-3.003919	B F |
-0.6544768	F F |
-1.4563121	J F |
-0.70702267	' F |
-0.1354398	<s> X |
-1.01903	H X |
